<?xml version="1.0"?>
<opencv_storage>
<opencv_ml_svm>
  <format>3</format>
  <svmType>C_SVC</svmType>
  <kernel>
    <type>LINEAR</type></kernel>
  <C>1.</C>
  <term_criteria><iterations>1000</iterations></term_criteria>
  <var_count>500</var_count>
  <class_count>40</class_count>
  <class_labels type_id="opencv-matrix">
    <rows>40</rows>
    <cols>1</cols>
    <dt>i</dt>
    <data>
      0 1 2 3 4 5 6 7 8 9 10 11 12 13 14 15 16 17 18 19 20 21 22 23 24
      25 26 27 28 29 30 31 32 33 34 35 36 37 38 39</data></class_labels>
  <sv_total>780</sv_total>
  <support_vectors>
    <_>
      0. 0. 0. 0. 0. 1.46926537e-01 0. 0. -9.54545438e-02 0. 0. 0. 0.
      -1.42676771e-01 3.57142873e-02 0. 0. 4.34782617e-02 0. 0.
      1.10392720e-01 0. 0. 0. 0. 0. 0. 0. 0. 0. 0. 0. 2.59034455e-01 0.
      -1.41724944e-01 0. 0. 6.89655170e-02 0. 0. 0. 4.54545468e-02 0. 0.
      0. 0. 0. 1.81818187e-01 0. 0. -5.65404892e-01 0. 4.54545468e-02 0.
      0. 0. 0. 0. -4.54545468e-02 0. 0. 0. 0. 4.34782617e-02 0. 0.
      -3.45609963e-01 0. 0. -1.10144928e-01 0. 0. 0. 0. 4.54545468e-02
      0. 0. 0. 0. 6.25000000e-02 0. 0. 8.15656558e-02 0. -4.34782617e-02
      -5.00000007e-02 2.40660906e-02 0. 3.57142873e-02 0. 0. 0. 0. 0. 0.
      0. 3.57142873e-02 0. -5.09639919e-01 0. -2.74725258e-03
      4.34782617e-02 -1.70401335e-01 -3.03807370e-02 0. 0. 0. 0.
      4.34782617e-02 0. 0. -1.88888893e-01 0. 0. 3.57142873e-02 0. 0.
      3.57142873e-02 0. 0. 0. 0. 0. 0. 0. 0. 0. 4.54545468e-02 0. 0. 0.
      0. 1.01449266e-02 0. 0. 6.25000000e-02 3.57142873e-02 0.
      4.54545468e-02 2.59698272e-01 0. -2.12543920e-01 0. 0. 0. 0. 0.
      -5.55555560e-02 4.34782617e-02 0. -5.00000007e-02 -7.69230798e-02
      0. 0. 0. 0. 0. -9.54545438e-02 0. 0. 0. 0. 3.12500000e-02 0. 0. 0.
      0. 0. 2.08333321e-02 0. 0. 4.54545468e-02 0. -1.70289859e-01 0. 0.
      0. 0. -2.17720687e-01 0. 0. 0. 0. 0. -1.72266141e-01 0. 0. 0.
      -7.21153989e-03 0. 0. 0. 2.07832932e-01 0. 0. 0. 0.
      -3.84615399e-02 0. 4.54545468e-02 0. 4.34782617e-02 0. 0. 0. 0. 0.
      0. -5.00000007e-02 0. -1.59090944e-02 0. 0. -3.84615399e-02
      1.19565204e-02 0. 4.54545468e-02 0. 0. 0. 0. 0. 0. 0. 0. 0.
      1.37931034e-01 0. 0. 0. 0. 0. 0. 0. 0. -8.51449296e-02
      4.54545468e-02 -2.46464655e-01 0. 0. 0. 0. 0. 8.11688304e-02 0. 0.
      0. 0. 0. 0. -4.34782617e-02 0. 9.09090936e-02 0. 0. 6.25000000e-02
      1.11187309e-01 0. 0. 0. 0. -8.91513377e-02 0. 0. 0.
      -3.33333351e-02 0. 2.91666649e-02 0. 0. 0. 0. 0. 0. 0. 0.
      1.46926537e-01 9.09090936e-02 -3.84615399e-02 0. 0. 0. 0. 0. 0. 0.
      0. 0. 0. 0. 0. -3.48276258e-01 0. 0. 0. 0. 1.52821094e-03 0. 0. 0.
      0. 0. 0. 0. 0. 3.03312689e-02 0. 4.54545468e-02 0. 0. 0. 0. 0.
      3.12500000e-02 0. 0. 0. 0. 0. 0. 3.57142873e-02 4.54545468e-02
      3.57142873e-02 1.56250000e-01 0. 0. 0. 0. -6.01010099e-02
      6.29855096e-02 0. 2.32954547e-01 0. -3.39942932e-01 0.
      4.54545468e-02 1.88311696e-01 0. 4.34782617e-02 0. 0. 0. 0. 0. 0.
      0. 0. 2.94237018e-01 0. 0. 7.14285746e-02 0. 4.54545468e-02 0. 0.
      -3.84615399e-02 0. 9.09090936e-02 0. 3.12500000e-02 0. 0. 0. 0. 0.
      0. 0. 0. 3.56321819e-02 -1.11111112e-01 0. 0. 0. 0. 0.
      1.30434781e-01 0. 0. 0. 0. 0. 0. 1.22670814e-01 0. 0. 0. 0. 0. 0.
      0. 0. 1.12418830e-01 0. 0. 0. 0. 0. -4.54545468e-02 0. 0. 0. 0. 0.
      0. 0. 0. 0. 0. 4.34782617e-02 0. 1.21212117e-02 0. 0.
      2.38095224e-03 0. -3.33333351e-02 -3.84615399e-02 -2.15909094e-01
      0. 4.54545468e-02 0. 0. -3.84615399e-02 0. 0. 9.09090936e-02 0.
      9.09090936e-02 0. 0. 0. -7.65398592e-02 0. 0. 0. 0. 0.
      4.54545468e-02 0. 0. 0. 0. 0. 0. 0. 0. 0. -4.54545468e-02 0. 0.
      -4.54545468e-02 0. 0. 0. 0. 1.26262635e-01 -4.54545468e-02 0.
      3.57142873e-02 0. 0. 0. 0. 4.76096943e-03 0. 0. 8.89328122e-02
      4.54545468e-02 0. 0. 0. 0. -8.33333358e-02 0. -4.16666679e-02
      4.54545468e-02 -1.92249417e-01 0. 0. 0. 0. 8.11688304e-02 0. 0.
      7.91925490e-02 0. 0. 0. 0. 0. 0. -3.33333351e-02 -3.84615399e-02
      0. 0. 0. 0. 1.03448272e-01 0. 4.54545468e-02</_>
    <_>
      0. 0. 0. 0. 0. 1.46926537e-01 0. 0. 0. 0. 0. -1.24676727e-01 0. 0.
      1.34920646e-02 0. 0. 4.34782617e-02 0. 0. 1.65948272e-01 0. 0. 0.
      0. 0. -1.53846154e-02 0. 0. 0. 0. 0. 2.26105973e-01
      -7.51506984e-02 1.01010129e-03 -3.99999991e-02 0. 6.89655170e-02
      0. -1.81818176e-02 0. 4.54545468e-02 0. 0. 0. 0. 0. 1.81818187e-01
      0. 0. -1.53846154e-02 0. 4.54545468e-02 0. -2.22222228e-02 0. 0.
      0. -3.68482411e-01 0. -1.53846154e-02 0. 0. 4.34782617e-02 0. 0.
      4.54545468e-02 0. 0. 0. 0. 0. 0. -1.53846154e-02 4.54545468e-02
      -3.29284742e-02 0. -3.81818190e-02 -1.53846154e-02 4.43181843e-02
      0. 0. 2.13932812e-01 0. -3.99999991e-02 -2.45762885e-01
      6.57327622e-02 0. 3.57142873e-02 0. 0. 0. 0. 0. -5.97660840e-02 0.
      3.57142873e-02 0. 0. 0. 3.57142873e-02 4.34782617e-02
      -9.29914564e-02 2.50000000e-01 0. 0. 0. 0. 4.34782617e-02 0. 0. 0.
      0. 0. 3.57142873e-02 0. 0. 3.57142873e-02 0. 0. 0. 0. 0. 0. 0. 0.
      0. 4.54545468e-02 0. 0. 0. 0. 4.34782617e-02 0. 0. 6.25000000e-02
      3.57142873e-02 -3.70096922e-01 4.54545468e-02 2.59698272e-01 0.
      6.25000000e-02 0. 0. 0. 0. -3.78708541e-01 0. 4.34782617e-02 0. 0.
      -2.22222228e-02 0. 0. 0. 0. 0. 4.54545468e-02 0. 0. 0.
      -3.35664339e-02 3.12500000e-02 0. 0. 0. 0. 0. 6.25000000e-02 0. 0.
      4.54545468e-02 0. 0. -6.58569485e-02 0. 0. 0. -5.76068386e-02 0.
      -4.03090000e-01 0. 0. 0. -1.20201200e-01 0. 0. 0. 1.12500004e-02
      0. 0. 0. 2.89772749e-01 0. 0. 0. 0. 0. 0. -5.46067953e-02 0.
      4.34782617e-02 -3.23323935e-01 0. 0. 0. 0. -1.81818176e-02
      -1.99999996e-02 0. 1.25000000e-01 0. 0. 0. 1.69193111e-02 0.
      -1.67334065e-01 0. 0. 0. 0. 0. 0. 0. 0. 0. 1.37931034e-01 0. 0.
      -1.46853149e-01 0. 0. 0. 0. 0. 0. -1.79051235e-01 4.54545468e-02
      0. 0. -1.81818176e-02 0. 0. 8.11688304e-02 0. 0. 0. 0. 0. 0. 0. 0.
      9.09090936e-02 0. 0. -6.33741319e-02 4.28742170e-02 0.
      -1.81818176e-02 0. 0. 3.12500000e-02 0. 0. 0. -3.81818190e-02 0.
      6.25000000e-02 0. 0. 0. -3.25155199e-01 0. 0. 0. 0. 8.04316252e-02
      9.09090936e-02 0. 0. 0. 0. 0. 0. -7.39074945e-02 0. 0.
      -1.53846154e-02 -1.53846154e-02 0. 0. 0. 0. 0. 0. 0.
      9.69827622e-02 0. 0. 0. 0. 0. 0. 0. 0. 1.07142866e-01 0.
      4.54545468e-02 0. 0. 0. 0. 0. 3.12500000e-02 -1.18243158e-01 0. 0.
      0. 0. -1.53846154e-02 3.57142873e-02 4.54545468e-02
      -4.40517962e-02 1.56250000e-01 -3.15273374e-01 0. 0. 0.
      4.54545468e-02 8.60624313e-02 -1.69895723e-01 2.32954547e-01 0. 0.
      0. 4.54545468e-02 1.88311696e-01 0. 4.34782617e-02 0. 0. 0. 0. 0.
      0. -2.23216787e-01 0. 1.73537716e-01 0. 0. 7.14285746e-02
      -1.16083913e-01 4.54545468e-02 0. 0. 0. 0. 9.09090936e-02 0.
      3.12500000e-02 -1.33286715e-01 0. 0. 0. 0. 0. 0. 0. 6.89655170e-02
      0. 0. 0. 0. 0. 0. 1.30434781e-01 0. 0. 0. -1.06666669e-01 0. 0.
      1.04488991e-01 0. 0. 0. 0. -1.81818176e-02 -1.81818176e-02 0. 0.
      1.12418830e-01 0. 0. 0. 0. 0. 0. 0. 0. -1.03496507e-01 0. 0. 0. 0.
      -1.81818176e-02 -1.53846154e-02 0. 4.34782617e-02 0.
      4.54545468e-02 0. 0. 3.57142873e-02 0. 0. 0. -2.39595145e-01
      -1.99999996e-02 1.01010129e-03 0. -1.75438598e-02 0. 0.
      -1.53846154e-02 9.09090936e-02 -3.99999991e-02 9.09090936e-02 0.
      0. 0. 1.39204547e-01 0. 0. 0. 0. 0. 4.54545468e-02 0. 0. 0. 0. 0.
      0. 0. -3.95677418e-01 0. 0. 0. -1.19829059e-01 -1.75438598e-02 0.
      -1.99999996e-02 0. 0. 1.63636371e-01 0. 0. -1.26523480e-01 0. 0.
      0. 0. 1.00215517e-01 0. 0. 6.41532615e-03 4.54545468e-02 0. 0. 0.
      0. -3.33331704e-01 0. 0. 4.54545468e-02 0. 0. -3.63636352e-02 0.
      0. 8.11688304e-02 0. 0. 7.91925490e-02 0. 0. 0. 0. 0. 0. 0. 0. 0.
      0. 0. 0. 1.03448272e-01 0. 9.72886942e-03</_>
    <_>
      -1.09890118e-01 0. 0. -3.44827585e-02 -7.41758272e-02
      1.46926537e-01 0. 0. 0. -1.68933898e-01 0. 0. 0. -6.97115362e-02
      3.57142873e-02 0. -1.46455929e-01 4.34782617e-02 0. 0.
      1.65948272e-01 0. -1.80639595e-01 0. -6.79723471e-02 0. 0. 0. 0.
      0. 0. -4.34782617e-02 2.59034455e-01 0. 4.54545468e-02 0. 0.
      6.89655170e-02 -7.41758272e-02 0. 0. 4.54545468e-02 0. 0.
      -3.84615399e-02 0. 0. 1.09560125e-01 -1.83686644e-01 0. 0. 0.
      4.54545468e-02 0. 0. -3.22580636e-02 -2.04125628e-01 0. 0. 0. 0.
      -3.84615399e-02 0. 4.34782617e-02 0. 0. 4.54545468e-02 0. 0. 0. 0.
      -1.35929808e-01 0. 0. 4.54545468e-02 0. 0. 0. -1.75115213e-01
      6.25000000e-02 0. -6.45161271e-02 -3.76318961e-01 -3.12500000e-02
      -3.57142873e-02 0. -4.84651066e-02 0. 3.57142873e-02 0. 0. 0. 0.
      -3.84615399e-02 0. 0. 3.57142873e-02 0. 0. 0. 3.57142873e-02
      4.34782617e-02 -3.84615399e-02 2.50000000e-01 0. 0. 0. 0.
      4.34782617e-02 -3.44827585e-02 0. -7.01970458e-02 0. 0.
      -2.74725258e-03 0. 0. 3.57142873e-02 -3.22580636e-02 0.
      -3.12500000e-02 0. 0. 0. -7.07195997e-02 -8.69565234e-02 0.
      4.54545468e-02 0. 0. -3.12500000e-02 0. 4.34782617e-02 0.
      -3.12500000e-02 6.25000000e-02 3.57142873e-02 0. 4.54545468e-02
      2.59698272e-01 0. 2.67857127e-02 0. -6.69642836e-02 0. 0. 0. 0.
      4.34782617e-02 0. 0. 0. 0. 0. 0. 0. 0. 4.54545468e-02 0. 0. 0. 0.
      -1.03463173e-01 0. 0. 0. 0. -3.84615399e-02 6.25000000e-02 0. 0.
      -2.25178041e-02 0. 0. 0. 0. 0. 0. 0. 0. 0. 0. 0. 0. 4.54545468e-02
      0. -3.12500000e-02 0. -3.23275849e-03 -4.34782617e-02 0. 0.
      -2.95193076e-01 0. 0. 0. 0. 0. 0. 4.54545468e-02 0. 4.34782617e-02
      0. 0. 0. 0. 0. 0. 0. -7.29442984e-02 1.25000000e-01 0. 0.
      -1.11450613e-01 1.32411063e-01 -2.02894092e-01 4.54545468e-02 0.
      -6.35080636e-02 0. 0. 0. -3.12500000e-02 0. 0. 0. 1.37931034e-01
      0. 0. 0. -8.69565234e-02 0. 0. 0. 0. 0. 4.54545468e-02
      4.54545468e-02 0. 0. -3.57142873e-02 0. -1.34936631e-01
      8.11688304e-02 0. 0. 0. -7.01970458e-02 0. 0. -2.31450617e-01 0.
      9.09090936e-02 0. 0. 6.25000000e-02 1.11187309e-01 0. 0.
      -7.22580627e-02 0. 3.12500000e-02 0. 0. 0. 0. 0. 6.25000000e-02 0.
      0. 0. 0. 0. 0. 0. 0. 1.46926537e-01 9.09090936e-02 0. 0. 0. 0. 0.
      0. 0. 0. 0. 0. -7.12499991e-02 0. 0. 0. 0. 0. 0. 0. 9.69827622e-02
      0. 0. 0. 0. 0. 0. 0. 0. 1.07142866e-01 -3.25564921e-01
      4.54545468e-02 0. 0. 0. 0. 0. -1.22282617e-02 0. 0. 0. 0. 0. 0.
      3.57142873e-02 4.54545468e-02 3.57142873e-02 1.16250001e-01 0. 0.
      0. 0. 4.54545468e-02 1.01447046e-01 0. 2.32954547e-01 0.
      -7.91925490e-02 0. 4.54545468e-02 1.88311696e-01 0. 4.34782617e-02
      0. 0. 0. 0. 0. 0. 0. 0. 2.94237018e-01 0. 0. 7.14285746e-02 0.
      4.54545468e-02 -6.57327622e-02 0. 0. 0. 9.09090936e-02 0.
      3.12500000e-02 0. 0. 0. 0. 0. -7.69230798e-02 0. 0. 6.89655170e-02
      0. 0. -3.99999991e-02 0. -6.57327622e-02 -2.54136324e-01
      1.30434781e-01 0. 0. 0. 0. 0. 0. 1.22670814e-01 0. 0. 0. 0.
      -3.99999991e-02 0. 0. 0. 1.12418830e-01 0. -3.99999991e-02 0. 0.
      0. -1.86433882e-01 0. 0. 0. -3.44827585e-02 0. 0. 0. 0. 0. 0.
      4.34782617e-02 -7.01970458e-02 4.54545468e-02 0. 0. 3.57142873e-02
      0. 0. 0. 0. 0. 6.99300691e-03 0. 0. 0. 0. 0. 9.09090936e-02 0.
      9.09090936e-02 0. 0. 0. 1.00743011e-01 0. 0. -3.84615399e-02
      -3.22580636e-02 0. 4.54545468e-02 0. 0. 0. -3.35591137e-01 0. 0.
      0. 0. 0. 0. -3.73620838e-01 0. 0. 0. 0. 0. 0. 1.81818187e-01 0. 0.
      3.57142873e-02 -3.12500000e-02 -3.99999991e-02 0. 0.
      1.00215517e-01 0. 0. 8.89328122e-02 4.54545468e-02 0. 0. 0. 0. 0.
      0. 0. 4.54545468e-02 0. -7.69230798e-02 0. 0. 0. 8.11688304e-02 0.
      0. 7.91925490e-02 0. 0. -7.99999982e-02 0. 0. 0. 0. 0. 0. 0. 0. 0.
      1.03448272e-01 -1.40394092e-01 4.54545468e-02</_>
    <_>
      0. 0. -5.52627705e-02 0. 0. 1.46926537e-01 -5.53221330e-02 0. 0.
      -7.99999982e-02 -2.85714287e-02 0. 0. -1.61290318e-02
      3.57142873e-02 0. 0. 4.34782617e-02 0. 0. 9.89153013e-02 0. 0.
      -2.08333340e-02 0. 0. -3.57368737e-02 0. 0. -2.85714287e-02 0. 0.
      2.59034455e-01 0. 6.99300691e-03 0. -1.12225138e-01 6.89655170e-02
      0. 0. 0. 4.54545468e-02 0. -2.90031016e-01 0. -2.85714287e-02
      -7.69230798e-02 1.10367022e-01 0. -2.85714287e-02 0. 0.
      2.58467030e-02 0. 0. -3.84615399e-02 -6.08333349e-02 0. 0. 0. 0.
      0. 0. 4.34782617e-02 0. -2.85714287e-02 4.54545468e-02 0. 0. 0. 0.
      0. 0. -9.80392173e-02 4.54545468e-02 0. -3.92156877e-02 0.
      -1.78571437e-02 6.25000000e-02 0. 0. 2.13932812e-01
      -1.99999996e-02 0. 0. 6.57327622e-02 0. 3.57142873e-02 0.
      -3.61290313e-02 0. -1.67161182e-01 0. 0. -3.99688721e-01
      -2.14285702e-02 -3.84615399e-02 0. -6.70329705e-02 3.57142873e-02
      1.49068329e-02 0. 1.54395610e-01 -7.90722966e-02 0. 0. 0.
      4.34782617e-02 0. 0. -1.78571437e-02 0. 0. -2.72289757e-02 0. 0.
      3.57142873e-02 0. 0. 0. 0. 0. 0. -7.58671686e-02 0. 0.
      4.54545468e-02 0. 0. 0. 0. 4.34782617e-02 0. -1.78571437e-02
      6.25000000e-02 3.57142873e-02 0. 4.54545468e-02 2.59698272e-01 0.
      6.25000000e-02 0. 0. 0. 0. 0. 0. 4.34782617e-02 0. 0. 0.
      -1.10948540e-01 0. -1.99999996e-02 0. 0. -9.86758433e-03 0.
      -3.92156877e-02 0. 0. -3.57829705e-02 0. 0. 0. 0. 0.
      6.25000000e-02 0. 0. 4.54545468e-02 -1.99999996e-02 0.
      -1.96078438e-02 0. -7.99999982e-02 0. 0. -3.39861736e-02 0. 0. 0.
      0. 4.54545468e-02 0. -3.37390274e-01 -1.61290318e-02
      3.12500000e-02 0. -1.69930875e-01 -6.70329705e-02 2.70164877e-01
      0. 0. 0. -3.92156877e-02 0. 0. 4.54545468e-02 -3.74649875e-02
      4.34782617e-02 0. 0. 0. 0. 0. 0. 0. -1.05494507e-01 1.25000000e-01
      -4.94047627e-02 0. 0. 1.32411063e-01 -4.12765965e-02
      4.54545468e-02 0. -3.84615399e-02 0. 0. -3.39861736e-02 0. 0.
      -1.22943260e-01 0. 1.37931034e-01 -1.61290318e-02 -4.48770493e-01
      0. 0. -1.78571437e-02 0. 0. 0. 0. 4.54545468e-02 4.54545468e-02 0.
      0. 0. 0. 0. 6.03355020e-02 0. 0. 0. 0. 0. 0. 0. 0. 2.96324994e-02
      0. 0. 6.25000000e-02 8.26158747e-02 0. 0. 0. -2.34302133e-01
      2.67857127e-03 -2.08333340e-02 -5.88235334e-02 0. -3.22580636e-02
      0. 4.28921580e-02 0. 0. 0. 0. 0. 0. -1.96078438e-02 0.
      1.46926537e-01 9.09090936e-02 -2.85714287e-02 0. -1.99999996e-02
      0. 0. 0. 0. -5.99670708e-02 0. 0. -1.96078438e-02 -2.85714287e-02
      -1.77339777e-01 0. 0. 0. 0. -4.83870953e-02 9.69827622e-02 0. 0.
      0. -1.99999996e-02 0. 0. 0. 0. 1.07142866e-01 0. 4.54545468e-02 0.
      0. 0. 0. 0. 3.12500000e-02 -2.85714287e-02 0. -1.78571437e-02 0.
      0. 0. 3.57142873e-02 -9.90132391e-02 3.57142873e-02 1.56250000e-01
      0. 0. 0. -1.94716886e-01 4.54545468e-02 1.01447046e-01 0.
      2.32954547e-01 0. 0. 0. 4.54545468e-02 1.88311696e-01 0.
      4.34782617e-02 0. -1.31358877e-01 -3.44088733e-01 -1.61290318e-02
      0. 0. 0. 0. 2.94237018e-01 0. -2.85714287e-02 7.14285746e-02 0.
      4.54545468e-02 -7.49299750e-02 0. 0. 0. 9.09090936e-02 0.
      -4.56730798e-02 0. 0. 0. 0. 0. 0. 0. -1.96078438e-02
      6.89655170e-02 0. 0. -2.85714287e-02 0. 0. -3.74649875e-02
      1.10826939e-01 0. 0. 0. 0. 0. 0. 1.22670814e-01 -2.12765951e-02 0.
      0. 0. 0. 0. 0. 0. 1.12418830e-01 0. 0. 0. 0. 0. 0. 0. 0. 0. 0. 0.
      0. 0. 0. 0. 0. 4.34782617e-02 0. 4.54545468e-02 0. 0.
      3.57142873e-02 0. 0. -1.05494507e-01 0. 0. 4.54545468e-02 0. 0. 0.
      0. 0. 9.09090936e-02 0. 9.09090936e-02 -3.84615399e-02 0.
      -5.97381368e-02 8.20616931e-02 0. 0. -8.93083066e-02 0. 0.
      4.54545468e-02 0. 0. -3.84615399e-02 0. 0. 0. -1.16437733e-01 0.
      0. 0. 0. 0. 0. 0. -1.00571468e-01 0. 0. 1.81818187e-01 0. 0.
      3.57142873e-02 -1.99999996e-02 0. -1.25496447e-01 0.
      1.00215517e-01 0. 0. 8.89328122e-02 4.54545468e-02 0. 0. 0. 0. 0.
      0. 0. 6.23885915e-03 0. -5.71428575e-02 0. 0. 0. 8.11688304e-02 0.
      0. -7.67038092e-02 -9.13918018e-02 0. 0. 0. 0. 0. 0. 0. 0. 0. 0.
      -3.39861736e-02 -1.49654567e-01 0. 4.54545468e-02</_>
    <_>
      0. -3.18401419e-02 0. 0. -1.02040814e-02 1.46926537e-01 0. 0. 0.
      0. 0. 0. 0. -1.02040814e-02 3.57142873e-02 -9.26728398e-02 0.
      4.34782617e-02 -1.47787154e-01 0. 1.65948272e-01 -7.22462386e-02
      0. -2.09705755e-02 0. -1.22464642e-01 0. 0. 0. -3.45127225e-01 0.
      0. 2.59034455e-01 0. 4.54545468e-02 0. -1.08695654e-02
      6.89655170e-02 -9.99999978e-03 0. 0. 4.54545468e-02 0. 0. 0.
      -1.08695654e-02 0. 1.81818187e-01 0. 0. 0. 0. 4.54545468e-02 0.
      -9.40017477e-02 0. 0. -3.11930925e-02 0. -1.60004079e-01
      -1.35605067e-01 -2.41141871e-01 0. -4.70322073e-01 0.
      -2.17391308e-02 4.54545468e-02 0. 0. 0. 0. 0. 0. 0. 4.54545468e-02
      -2.10736468e-02 0. 0. 0. 3.06598581e-02 0. 0. 2.13932812e-01 0. 0.
      -9.99999978e-03 6.57327622e-02 0. 3.57142873e-02 0.
      -6.25902712e-02 0. -1.08695654e-02 0. 0. 0. 3.57142873e-02 0. 0.
      0. 3.57142873e-02 4.34782617e-02 0. 2.50000000e-01 0. 0.
      -1.01010101e-02 0. 4.34782617e-02 0. 0. 0. 0. 0. 3.57142873e-02
      -7.29117244e-02 0. 3.57142873e-02 -4.20605987e-02 0. 0.
      -9.38823000e-02 0. 0. -1.08695654e-02 -2.02040821e-02 0.
      4.54545468e-02 0. -1.68333203e-01 0. 0. 4.34782617e-02
      -2.17391308e-02 -1.09890113e-02 6.25000000e-02 3.57142873e-02 0.
      4.54545468e-02 2.59698272e-01 0. 6.25000000e-02 0. 0.
      -1.86592013e-01 0. 0. 0. -7.16155693e-02 0. 0. 0. 0.
      -1.55364111e-01 -1.15073338e-01 0. -2.09705755e-02 4.54545468e-02
      0. 0. 0. 0. 3.12500000e-02 0. 0. -2.62046218e-01 0. 0.
      6.25000000e-02 -2.09705755e-02 -1.08695654e-02 4.54545468e-02 0.
      0. -3.26086953e-02 0. 0. 0. 0. 0. 0. 0. 0. 0. 2.42614541e-02
      -1.09890113e-02 0. -1.01010101e-02 3.12500000e-02 0. 0.
      -1.09890113e-02 2.89772749e-01 0. 0. 0. 0. 0. 0. 1.45849818e-02
      -1.01010101e-02 3.33772525e-02 0. -1.48230121e-01 0.
      -1.36146978e-01 -1.01010101e-02 0. -1.08695654e-02 0.
      1.25000000e-01 0. 0. 0. 1.32411063e-01 0. 4.54545468e-02
      -3.20790336e-02 -2.09705755e-02 0. -4.27097082e-02 0. 0. 0. 0. 0.
      -1.87824816e-02 0. 0. 0. -6.31178692e-02 0. 0. 0. 0.
      -1.08695654e-02 4.54545468e-02 4.54545468e-02 0. 0. 0. 0. 0.
      8.11688304e-02 -4.33192223e-01 0. 0. -5.26086949e-02 0. 0. 0. 0.
      9.09090936e-02 0. 0. 6.25000000e-02 1.11187309e-01 0.
      -1.88246503e-01 -1.01010101e-02 0. 3.12500000e-02 0.
      -7.35792667e-02 0. -1.01010101e-02 -4.13787365e-02 6.25000000e-02
      0. -1.08695654e-02 0. 0. 0. 0. -1.01010101e-02 0. 1.46926537e-01
      9.09090936e-02 0. 0. -3.17391306e-02 0. 0. 0. 0. 0. 0.
      -1.08695654e-02 0. -9.50774550e-02 0. 0. 0. 0. 0. 0.
      9.69827622e-02 0. 0. 0. 0. -9.54214782e-02 -1.15196899e-01 0. 0.
      1.07142866e-01 0. 4.54545468e-02 0. 0. 0. 0. 0. 3.12500000e-02 0.
      0. 0. -1.08695654e-02 0. -1.36662334e-01 3.57142873e-02
      1.36144059e-02 3.57142873e-02 -1.04104877e-01 0. 0.
      -1.08695654e-02 0. 4.54545468e-02 4.00519334e-02 0. 2.32954547e-01
      0. 0. 0. 4.54545468e-02 1.88311696e-01 0. 4.34782617e-02 0. 0. 0.
      0. 0. -2.59875029e-01 0. 0. 2.94237018e-01 0. -2.10834712e-01
      7.14285746e-02 0. 4.54545468e-02 0. -1.02040814e-02 0. 0.
      9.09090936e-02 0. 3.12500000e-02 0. 0. 0. 0. 0. -9.32516307e-02 0.
      -1.57785103e-01 6.89655170e-02 0. 0. 0. 0. 0. 0. 1.30434781e-01 0.
      -2.81206012e-01 0. 0. 0. 0. 1.12670809e-01 0. 0. -5.12736067e-02
      0. 0. 0. 0. 0. 1.12418830e-01 0. 0. 0. 0. -4.39560451e-02 0. 0. 0.
      0. 0. 0. 0. -1.08695654e-02 0. 0. -1.69460088e-01 4.34782617e-02
      0. 3.53535376e-02 0. -1.08695654e-02 3.57142873e-02
      -2.01010108e-02 0. 0. 0. -1.09890113e-02 4.54545468e-02 0. 0. 0.
      0. -1.76573575e-01 9.09090936e-02 -6.45519048e-02 9.09090936e-02
      0. 0. 0. 1.39204547e-01 0. 0. 0. 0. 0. 3.52504663e-02 0. 0. 0. 0.
      0. 0. 0. 0. 0. -4.20790315e-02 -3.09705753e-02 0. 0. 0.
      -5.38017899e-02 0. 0. 1.81818187e-01 0. 0. 3.57142873e-02
      -3.19595858e-02 -4.13787365e-02 -4.35977057e-02 0. 1.00215517e-01
      0. 0. 8.89328122e-02 4.54545468e-02 0. 0. 0. 0. 0. 0. 0.
      4.54545468e-02 -2.17391308e-02 0. 0. 0. 0. 8.11688304e-02
      -2.09705755e-02 0. 7.91925490e-02 0. 0. -2.09705755e-02 0. 0. 0.
      0. 0. 0. 0. 0. -7.40058720e-02 1.03448272e-01 0. 4.54545468e-02</_>
    <_>
      0. 0. 0. 0. 0. 1.46926537e-01 -3.12500000e-02 0. 0. 0. 0. 0. 0. 0.
      -6.00518398e-02 0. -2.70270277e-02 1.31752305e-02 0. 0.
      1.65948272e-01 -1.73170730e-01 0. 0. 0. 0. 0. 0. -1.99999996e-02
      -1.99999996e-02 0. 0. 2.59034455e-01 0. 4.54545468e-02 0.
      -9.28030312e-02 6.89655170e-02 0. -3.33333351e-02 0.
      -5.66592738e-02 0. 0. 0. -7.77235776e-02 0. 1.50568187e-01 0. 0.
      0. 0. 4.54545468e-02 0. 0. 0. 0. 0. 0. 0. 0. -3.33333351e-02
      -5.33333346e-02 4.34782617e-02 0. 0. -7.86595792e-02 0. 0. 0. 0.
      -3.22580636e-02 0. 0. 4.54545468e-02 0. 0. 0. -8.80839378e-02
      6.25000000e-02 0. 0. -1.95535570e-01 0. -3.12500000e-02
      -2.43902430e-02 6.57327622e-02 0. 1.90476198e-02 0.
      -3.03030312e-02 0. 0. 0. -2.70270277e-02 0. 3.57142873e-02 0.
      -9.77235734e-02 0. 3.57142873e-02 4.34782617e-02 0. 2.22972974e-01
      -6.36936948e-02 0. 0. 0. 2.42135115e-03 0. 0. 0. 0.
      -2.16167867e-01 3.45622376e-03 -6.15530312e-02 0. 3.57142873e-02
      -1.48050785e-01 0. 0. -2.70270277e-02 -1.26069158e-01 0. 0. 0.
      -2.43902430e-02 -1.84046656e-01 -1.14414424e-01 -2.43902430e-02 0.
      0. 4.34782617e-02 -3.22580636e-02 -3.22580636e-02 6.25000000e-02
      8.68725963e-03 0. 4.54545468e-02 2.59698272e-01 -3.66666690e-02
      -1.13636628e-03 0. 0. 0. 0. 0. 0. 4.34782617e-02 0. 0. 0. 0. 0. 0.
      0. 0. 4.54545468e-02 0. 0. 0. -7.84443021e-02 3.12500000e-02 0. 0.
      0. -3.66666690e-02 -1.66666675e-02 6.25000000e-02 0. 0.
      4.54545468e-02 0. 0. -3.33333351e-02 0. 0. 0. 0. 0. 0.
      -1.60349458e-01 0. 0. 4.54545468e-02 0. 0. -1.94886371e-01
      3.12500000e-02 0. 0. 0. 2.89772749e-01 -4.38378453e-01
      -3.15970182e-01 -3.66666690e-02 -2.70270277e-02 0. 0.
      4.54545468e-02 0. 4.34782617e-02 0. 0. 0. 0. 0. 0. 0. 0.
      1.25000000e-01 0. 0. 0. 1.32411063e-01 0. 4.54545468e-02 0. 0. 0.
      -3.03030312e-02 0. 0. 0. 0. -3.66666690e-02 1.13540791e-01 0. 0.
      0. 0. 0. 0. 0. -3.33333351e-02 0. -1.37019634e-01 4.54545468e-02
      -1.66666675e-02 0. 0. 0. 0. 8.11688304e-02 0. 0. -2.97585160e-01
      0. 0. 0. 0. 0. 9.09090936e-02 0. 0. -2.21751809e-01 1.11187309e-01
      0. -3.33333351e-02 0. 0. 3.12500000e-02 0. 0. 0. 0. 0.
      6.25000000e-02 0. 0. -1.66666675e-02 -2.43902430e-02
      -2.70270277e-02 0. 0. 0. 1.46926537e-01 3.42424288e-02 0. 0. 0. 0.
      0. 0. 0. 0. 0. -1.54171452e-01 0. 0. 0. 0. 0. 0. -2.43902430e-02
      0. 9.69827622e-02 0. 0. 0. 0. 0. -6.06060624e-02 0. 0.
      1.07142866e-01 0. -1.82391480e-02 0. 0. 0. 0. 0. 3.12500000e-02 0.
      -4.10569087e-02 0. 0. 0. 0. 3.57142873e-02 4.54545468e-02
      3.57142873e-02 1.56250000e-01 0. 0. -1.99999996e-02 0.
      4.54545468e-02 1.01447046e-01 0. 1.96287885e-01 0. -3.03030312e-02
      0. 4.54545468e-02 1.88311696e-01 0. 4.34782617e-02 0. 0. 0.
      -1.90780789e-01 0. 0. 0. 0. 2.94237018e-01 -4.70270291e-02
      -5.66666648e-02 7.14285746e-02 -1.52474180e-01 2.10643038e-02 0.
      0. -3.12500000e-02 0. 2.98521835e-02 0. 3.12500000e-02 0. 0. 0. 0.
      0. -5.46932742e-02 0. 0. 3.56321819e-02 0. -6.36936948e-02 0. 0.
      0. 0. 1.30434781e-01 0. 0. -3.22580636e-02 0. 0. -6.55913949e-02
      1.22670814e-01 0. -1.66666675e-02 0. 0. 0. 0. 0. 0. 1.12418830e-01
      0. 0. 0. 0. -1.69140846e-01 0. 0. 0. 0. 0. 0. 0. 0. 0. 0. 0.
      4.34782617e-02 0. 4.54545468e-02 0. 0. 3.57142873e-02 0. 0. 0. 0.
      0. 4.54545468e-02 0. -6.10569119e-02 0. 0. 0. 9.09090936e-02 0.
      9.09090936e-02 0. 0. 0. 1.39204547e-01 0. 0. -3.22580636e-02 0. 0.
      4.54545468e-02 0. 0. -4.43902425e-02 -3.12500000e-02
      -2.70270277e-02 0. 0. 0. 0. 0. 0. -1.99754372e-01 -3.22580636e-02
      0. -9.39393938e-02 0. 0. 1.24094605e-01 -1.66666675e-02
      -6.55913949e-02 3.57142873e-02 -6.25000000e-02 0. 0. 0.
      1.00215517e-01 0. 0. 8.89328122e-02 -1.11992911e-01 0. 0. 0. 0.
      -3.12500000e-02 -1.66666675e-02 0. -2.12121233e-02 0. 0. 0. 0. 0.
      8.11688304e-02 -4.43902425e-02 0. 7.91925490e-02 0. 0.
      -3.03030312e-02 0. 0. 0. 0. 0. 0. 0. 0. -6.66666701e-02
      1.03448272e-01 0. 4.54545468e-02</_>
    <_>
      0. 0. -1.51515156e-02 0. -2.38095243e-02 1.46926537e-01
      -1.88727945e-01 -1.51515156e-02 0. 0. -1.38888890e-02
      -6.54761940e-02 -5.68181835e-02 0. 3.57142873e-02 -5.26315793e-02
      0. 4.34782617e-02 0. -2.77777780e-02 1.16345093e-01 0.
      -1.51515156e-02 0. 0. 0. 0. -7.14285746e-02 0. -1.51515156e-02
      -3.03030312e-02 0. 1.87453255e-01 0. 2.16450226e-02 0.
      -2.38095243e-02 6.89655170e-02 -3.03030312e-02 -1.70634925e-01 0.
      4.54545468e-02 -1.38888890e-02 0. 0. 0. 0. 1.03826731e-01 0.
      -2.77777780e-02 0. 0. 4.54545468e-02 0. 0. 0. 0. 0. 0.
      -1.51515156e-02 0. 0. 0. 4.34782617e-02 0. 0. 4.54545468e-02 0. 0.
      0. 0. 0. 0. 0. 2.16450226e-02 0. 0. 0. 0. 6.25000000e-02 0. 0.
      1.83629781e-01 0. 0. 0. 6.57327622e-02 0. 3.57142873e-02 0. 0. 0.
      0. 0. 0. 0. 3.57142873e-02 0. -4.96031754e-02 0. -2.48917751e-02
      4.34782617e-02 -2.38095243e-02 1.83150187e-01 0. 0. 0. 0.
      1.81159377e-03 0. 0. 0. 0. 0. -7.32600689e-03 0. 0.
      -1.80069938e-01 0. 0. -4.54545468e-02 -3.03030312e-02 0.
      -1.38888890e-02 -6.41025677e-02 0. -3.53174627e-01 1.98135208e-02
      -1.38888890e-02 0. -1.51515156e-02 0. 4.34782617e-02
      -1.38888890e-02 -1.51515156e-02 3.86904776e-02 3.57142873e-02 0.
      7.75613356e-03 2.23983988e-01 -1.92307699e-02 6.25000000e-02 0. 0.
      0. 0. 0. 0. 2.83267461e-02 0. -7.32600763e-02 0. 0. 0. 0. 0. 0.
      3.03030312e-02 0. 0. 0. -9.21614915e-02 3.12500000e-02
      -2.90404037e-02 -1.38888890e-02 0. 0. 0. -4.34981845e-03
      -7.93650821e-02 0. 4.54545468e-02 0. 0. 0. 0. 0. 0. 0. 0. 0. 0. 0.
      0. -5.82750514e-03 0. 0. -3.76984142e-02 -1.17902942e-02 0. 0. 0.
      2.74621218e-01 0. 0. -2.41994128e-01 0. -5.15873022e-02
      -1.51515156e-02 4.54545468e-02 0. 4.34782617e-02 0. 0. 0. 0. 0. 0.
      -5.08658029e-02 0. 5.35714254e-02 0. 0. -6.77830949e-02
      -9.46469605e-02 0. 6.99300691e-03 -1.51515156e-02 -1.00732602e-01
      0. 0. 0. 0. -1.07142866e-01 0. 0. 1.37931034e-01 -1.26873136e-01
      0. 0. -3.57142873e-02 0. 0. 0. 0. 0. 4.54545468e-02 1.51515156e-02
      0. 0. -3.84615399e-02 -1.92307699e-02 0. 5.33910543e-02 0. 0. 0.
      0. -1.92307699e-02 0. 0. 0. 9.09090936e-02 0. 0. 4.32692319e-02
      1.11187309e-01 0. 0. -1.51515156e-02 0. 1.60984844e-02
      -2.38095243e-02 0. 0. -3.57142873e-02 -2.38095243e-02
      6.25000000e-02 0. -1.51515156e-02 -4.76190485e-02 -1.64682537e-01
      0. 0. 0. 0. 7.61084631e-02 9.09090936e-02 0. -2.38095243e-02 0. 0.
      0. 0. 0. 0. 0. 0. 0. 0. 0. 0. 0. -1.51515156e-02 0. 0.
      -4.58743908e-02 0. 0. 0. 0. 0. 0. 0. -6.15079366e-02
      1.07142866e-01 0. 4.54545468e-02 0. 0. 0. -1.38888890e-02 0.
      1.60984844e-02 0. 0. 0. 0. 0. 0. 3.57142873e-02 4.54545468e-02
      5.41125610e-03 1.52725540e-02 0. 0. -1.51515156e-02 0.
      -5.16150519e-02 4.29419614e-03 0. 1.93424627e-01 0. 0. 0.
      -1.22377649e-02 -4.78556454e-02 -1.27723157e-01 4.34782617e-02 0.
      0. 0. 0. -1.51515156e-02 0. -1.38888890e-02 0. 2.80348122e-01 0.
      -1.51515156e-02 7.14285746e-02 0. 4.54545468e-02 0. 0. 0. 0.
      4.14585434e-02 0. 3.12500000e-02 0. 0. 0. -1.16300374e-01
      -1.51515156e-02 0. -1.92307699e-02 0. 6.89655170e-02 0. 0.
      -2.38095243e-02 0. 0. 0. 1.30434781e-01 0. 0. 0. 0. 0. 0.
      1.22670814e-01 0. 0. 0. 0. 0. 0. 0. 0. 1.12418830e-01 0. 0. 0.
      -3.84615399e-02 0. -5.26315793e-02 0. -2.38095243e-02
      -2.38095243e-02 0. -3.89610380e-02 0. 0. 0. 0. -7.57575780e-02
      2.83267461e-02 0. 4.54545468e-02 0. -1.38888890e-02 3.57142873e-02
      0. 0. 0. 0. 0. 4.54545468e-02 0. -9.75033790e-02 0. 0.
      -1.51515156e-02 -2.25024983e-01 0. 9.09090936e-02 0. 0. 0.
      1.39204547e-01 0. 0. -3.03030312e-02 0. 0. 4.54545468e-02 0. 0.
      -6.13553151e-02 0. 0. 0. 0. -1.38888890e-02 0. 0. 0. 0.
      -2.38095243e-02 0. 0. 0. 0. 1.32155893e-02 0. 0. 1.64835174e-02
      -6.77830949e-02 -2.38095243e-02 0. -1.92307699e-02 -3.79518755e-02
      -2.38095243e-02 0. 6.51232824e-02 4.54545468e-02 0. 0.
      -1.92307699e-02 0. 0. 0. -4.76190485e-02 5.82750887e-04
      -5.26315793e-02 0. 0. 0. 0. 1.06560122e-02 0. 0. 7.91925490e-02 0.
      -1.47106558e-01 -7.14285746e-02 0. 0. 0. 0. -4.94505502e-02 0. 0.
      0. 0. 1.03448272e-01 0. -1.23959377e-01</_>
    <_>
      0. 0. 0. 0. 0. 9.50606242e-02 0. 0. 0. 0. 0. 0. 0. 0.
      3.57142873e-02 0. 0. 2.02224478e-02 0. 0. 1.25131950e-01 0. 0. 0.
      0. 0. 0. 0. 0. 0. 0. 0. 2.59034455e-01 0. 4.54545468e-02
      -1.15092553e-01 0. -3.05671126e-01 -7.60649145e-02 0.
      -2.38095243e-02 1.31964833e-02 0. 0. -4.37342733e-01 0. 0.
      1.81818187e-01 0. -2.04081628e-02 0. 0. 4.54545468e-02 0. 0.
      -1.01155937e-01 -3.44827585e-02 0. -1.28489330e-01 0. 0. 0. 0.
      4.34782617e-02 0. 0. 4.54545468e-02 0. 0. 0. 0. -3.44827585e-02 0.
      0. 4.54545468e-02 0. -3.16502452e-01 0. 0. 6.25000000e-02 0. 0.
      1.41369298e-01 -6.89655170e-02 0. 0. 6.57327622e-02 0.
      3.57142873e-02 0. 0. 0. 0. 0. 0. 0. 3.45622376e-03 0. 0.
      -2.04081628e-02 -9.80891958e-02 2.62368824e-02 0. 1.97333768e-01
      0. -5.17241359e-02 0. 0. 4.34782617e-02 0. 0. 0. 0. 0.
      3.57142873e-02 0. 0. 3.57142873e-02 0. 0. 0. 0. 0. -3.57221961e-01
      -3.76495421e-02 0. 0. 4.54545468e-02 -1.72413792e-02
      -1.96078438e-02 0. 0. 4.34782617e-02 0. 0. 6.25000000e-02
      3.57142873e-02 0. -5.99876270e-02 2.36442462e-01 0. 6.25000000e-02
      0. 0. 0. -2.38095243e-02 0. -1.10547669e-01 4.34782617e-02 0. 0.
      0. 0. 0. 0. 0. 0. -1.61079131e-03 0. 0. -1.25422582e-01 0.
      3.12500000e-02 0. 0. 0. 0. 0. 6.25000000e-02 0. 0. 4.54545468e-02
      0. -1.01365350e-01 0. 0. 0. 0. 0. 0. 0. 0. -3.57142873e-02 0.
      4.54545468e-02 0. 0. 0. 1.08418372e-02 0. 0. 0. 2.35682130e-01
      -1.96078438e-02 0. 0. 0. 0. 0. 2.58467030e-02 0. 2.62368824e-02
      -2.04081628e-02 0. 0. 0. 0. 0. 0. -5.29556647e-02 8.92857164e-02
      0. 0. 0. 1.32411063e-01 0. 4.54545468e-02 0. 0. 0. 0. 0.
      -3.57142873e-02 -1.17386490e-01 0. 0. 1.37931034e-01 0.
      -3.68492231e-02 0. 0. 0. 0. 0. -1.72413792e-02 -3.44827585e-02
      2.16450226e-02 -5.92252575e-02 0. 0. 0. 0. -7.01970458e-02
      -8.32829922e-02 0. 0. 0. 0. 0. -1.72413792e-02 0. 0.
      9.09090936e-02 -2.46305421e-01 0. 6.25000000e-02 4.37138043e-02 0.
      0. -7.14285746e-02 0. 3.12500000e-02 0. 0. -5.18659055e-02 0. 0.
      1.48809515e-02 0. 0. 0. -3.22580636e-02 0. 0. 0. 0. 1.46926537e-01
      9.09090936e-02 0. 0. 0. 0. -1.20139726e-01 -4.36639786e-02 0. 0.
      0. 0. 0. 0. -1.96078438e-02 0. 0. 0. 0. 0. -8.89846534e-02 0. 0.
      0. -3.44827585e-02 -8.74384269e-02 0. 0. 0. 1.07142866e-01
      -1.72413792e-02 4.54545468e-02 0. 0. 0. -1.25296623e-01 0.
      3.12500000e-02 0. 0. 0. 0. 0. 0. 3.57142873e-02 2.58467030e-02
      3.57142873e-02 1.56250000e-01 0. 0. 0. 0. 4.54545468e-02
      3.16796005e-02 0. 2.13346705e-01 -1.18606731e-01 -2.95401275e-01
      -7.03211501e-02 4.54545468e-02 1.88311696e-01 0. 4.34782617e-02 0.
      0. -3.22580636e-02 0. 0. 0. 0. 0. 2.94237018e-01 -2.32558139e-02
      0. 7.14285746e-02 0. 4.54545468e-02 -6.89655170e-02 0. 0. 0.
      9.09090936e-02 0. 3.12500000e-02 0. -9.34825540e-02
      -2.38095243e-02 0. 0. 0. 0. 0. 6.89655170e-02 0. 0.
      -7.36984462e-02 0. 0. 0. 1.30434781e-01 0. 0. 0. 0. 0. 0.
      1.22670814e-01 0. 0. 0. 0. 0. -1.40394092e-01 0. 0. 1.12418830e-01
      0. 0. 0. 0. 0. -3.68492231e-02 -3.57142873e-02 0. -7.30743855e-02
      0. 0. -2.46305421e-01 -1.96094915e-01 -1.60847425e-01 0. 0.
      2.30700988e-02 0. 4.54545468e-02 0. 0. 3.57142873e-02 0. 0. 0. 0.
      0. 4.54545468e-02 0. 0. 0. 0. 0. 9.09090936e-02 -3.44827585e-02
      9.09090936e-02 0. 0. 0. 1.39204547e-01 0. 0. 0. 0. 0.
      4.54545468e-02 0. -4.25626993e-01 0. 0. 0. 0. 0. 0. 0. 0. 0. 0. 0.
      0. 0. 0. 0. 1.81818187e-01 0. 0. 3.57142873e-02 -3.44827585e-02 0.
      0. 0. 6.08484074e-03 0. 0. 6.93249628e-02 4.54545468e-02 0. 0. 0.
      0. 0. -3.22580636e-02 -5.82922846e-02 4.54545468e-02 0. 0. 0. 0.
      0. 8.11688304e-02 0. 0. 7.91925490e-02 0. -6.91072866e-02 0. 0. 0.
      0. -1.12771265e-01 -2.32558139e-02 0. 0. 0. 0. 1.03448272e-01 0.
      4.54545468e-02</_>
    <_>
      0. 0. 0. 0. -2.94117648e-02 1.46926537e-01 0. 0. 0. 0. 0. 0. 0. 0.
      3.57142873e-02 0. -2.56282061e-01 4.34782617e-02 0. 0.
      1.65948272e-01 0. -4.47016954e-01 0. 0. 0. 0. 0. 0.
      -9.09090936e-02 0. 0. 2.59034455e-01 0. 4.54545468e-02 0. 0.
      6.89655170e-02 0. 0. 0. 1.31964833e-02 -3.99999991e-02 0. 0. 0. 0.
      1.09560125e-01 0. 0. -2.56410260e-02 0. 4.54545468e-02 0. 0.
      -3.99999991e-02 -9.50527936e-02 0. 0. 0. 0. 0. 0. 4.34782617e-02
      0. 0. -9.13196430e-02 -3.99999991e-02 0. 0. 0. -2.43902430e-02 0.
      -6.56410232e-02 -5.90615794e-02 0. 0. 0. 0. 6.25000000e-02 0. 0.
      -3.50923389e-02 -9.38020051e-02 -8.12812671e-02 0. 6.57327622e-02
      0. -5.34348041e-02 0. 0. 0. -7.99999982e-02 0. 0. 0.
      3.57142873e-02 -3.99999991e-02 0. 0. 3.57142873e-02 4.34782617e-02
      -5.56402430e-02 2.50000000e-01 0. 0. -2.56410260e-02 0.
      4.34782617e-02 0. 0. -7.81922489e-02 0. 0. 4.46428731e-03
      -1.09411761e-01 0. 3.57142873e-02 0. 0. 0. -5.88235296e-02
      -5.78990877e-02 0. 0. 0. 0. 4.54545468e-02 0. 0. 0. 0.
      1.12201981e-02 -3.22580636e-02 0. 6.25000000e-02 3.57142873e-02 0.
      4.54545468e-02 2.59698272e-01 0. -1.11860916e-01 0. 0. 0. 0. 0. 0.
      4.34782617e-02 -1.02582492e-01 0. 0. 0. 0. 0. 0. 0. 0. 0. 0. 0. 0.
      -8.74999911e-03 0. 0. 0. 0. 0. 6.25000000e-02 0. 0. 4.54545468e-02
      0. 0. 0. -3.99999991e-02 0. 0. 0. 0. 0. 0. 0. -2.56410260e-02
      4.54545468e-02 0. 0. 0. 3.12500000e-02 0. 0. 0. 1.74906418e-01 0.
      -3.12500000e-02 0. -3.99999991e-02 0. 0. 4.54545468e-02 0.
      4.34782617e-02 0. 0. 0. 0. 0. 0. 0. -8.12812671e-02 1.25000000e-01
      0. 0. -2.72657156e-01 1.32411063e-01 0. 4.54545468e-02 0. 0. 0. 0.
      0. -1.07604012e-01 0. 0. 0. 9.24764872e-02 0. 0. 0. 0. 0. 0. 0. 0.
      -2.43902430e-02 4.54545468e-02 4.54545468e-02 0. 0. 0. 0.
      -1.91974297e-01 8.11688304e-02 0. 0. 0. 0. 0. 0. -1.09970674e-01
      0. 2.52680685e-02 0. 0. 6.25000000e-02 1.11187309e-01 0. 0.
      -7.48663098e-02 0. -6.56410232e-02 0. 0. 0. 0. 0. -5.23663089e-02
      0. 0. 0. 0. 0. 0. 0. 0. 1.46926537e-01 9.09090936e-02 0. 0. 0.
      -9.12820548e-02 0. 0. 0. 0. 0. 0. -3.99999991e-02 0. 0. 0. 0. 0.
      0. 0. 9.69827622e-02 0. 0. 0. -4.87804860e-02 0. -7.22580627e-02
      0. 0. -2.35839754e-01 -2.56410260e-02 4.54545468e-02 0. 0. 0. 0.
      0. -8.74999911e-03 0. 0. 0. 0. 0. 0. 3.57142873e-02 4.54545468e-02
      3.57142873e-02 1.56250000e-01 0. 0. 0. 0. 4.54545468e-02
      1.01447046e-01 0. 2.32954547e-01 0. 0. 0. 4.54545468e-02
      1.88311696e-01 0. 4.34782617e-02 0. 0. 0. 0. 0. 0. 0. 0.
      2.94237018e-01 0. -5.78990877e-02 7.14285746e-02 0. 4.54545468e-02
      0. 0. 0. 0. 9.09090936e-02 0. 0. 0. 0. 0. 0. 0. 0. 0. 0.
      -6.73981234e-02 0. 0. -1.10693038e-01 0. -1.82037294e-01 0.
      1.30434781e-01 0. 0. -1.45032048e-01 -3.99999991e-02 0.
      -5.68910241e-02 1.22670814e-01 0. 0. 0. 0. 0. 0. 0. 0.
      1.12418830e-01 0. -3.99999991e-02 0. 0. 0. -3.54263633e-01 0. 0.
      0. -7.81922489e-02 0. 0. 0. 0. -2.56410260e-02 0. 4.34782617e-02
      -1.07604012e-01 0. 0. 0. 6.30252250e-03 0. 0. -3.12500000e-02 0.
      0. 4.54545468e-02 0. 0. 0. 0. 0. 9.09090936e-02 -2.56410260e-02
      9.09090936e-02 0. 0. 0. 2.43382361e-02 0. 0. -4.54545468e-02 0. 0.
      1.42045468e-02 0. 0. 0. -1.03833273e-01 -2.43902430e-02 0. 0. 0.
      0. 0. 0. 0. -3.22580636e-02 0. -1.04516126e-01 0. -2.43902430e-02
      1.81818187e-01 -2.94117648e-02 -1.79423079e-01 3.57142873e-02 0.
      0. 0. 0. 1.00215517e-01 0. 0. 8.89328122e-02 1.42045468e-02 0. 0.
      0. -8.22893307e-02 0. 0. 0. -7.99999982e-02 0. -7.99999982e-02 0.
      0. 0. 4.11688350e-02 0. 0. 7.91925490e-02 0. -3.53718460e-01 0. 0.
      0. 0. 0. 0. 0. 0. 0. 0. 1.03448272e-01 -2.43902430e-02
      4.54545468e-02</_>
    <_>
      -6.30861074e-02 -2.17391308e-02 -4.08333316e-02 0. 0.
      1.46926537e-01 0. 0. 0. -3.57142873e-02 -1.03919439e-01 0.
      -4.08333316e-02 0. 3.57142873e-02 0. -1.44433081e-01
      4.34782617e-02 0. 0. 1.65948272e-01 -1.78500652e-01
      -1.99999996e-02 0. 0. 0. 0. -1.11111112e-01 -1.76402777e-01
      -1.99999996e-02 0. 0. 2.28731424e-01 -2.17391308e-02
      4.54545468e-02 0. 0. 6.89655170e-02 0. 0. 0. -1.51515156e-02 0. 0.
      0. -8.34058002e-02 0. 1.81818187e-01 0. 0. 0. -1.99999996e-02
      4.54545468e-02 0. 0. 0. -7.27513283e-02 0. 0. 0. 0. 0. 0.
      4.34782617e-02 0. 0. 4.54545468e-02 0. 0. 0. 0. -1.96078438e-02 0.
      0. 4.54545468e-02 0. 0. 0. 0. 1.90217383e-02 0. 0. 2.13932812e-01
      0. -1.03054360e-01 0. 6.57327622e-02 0. 3.57142873e-02 0. 0. 0. 0.
      0. -3.54215592e-01 0. 1.39751565e-02 0. 0. 0. 3.57142873e-02
      4.34782617e-02 0. 1.77248672e-01 0. 0. 0. 0. 1.31752305e-02 0. 0.
      0. 0. 0. 3.57142873e-02 0. 0. 3.57142873e-02 0. 0. -3.70370373e-02
      0. 0. 0. 0. 0. 0. -2.83365041e-01 -3.03030312e-02 0. 0. 0.
      4.34782617e-02 0. 0. 1.89393759e-03 3.57142873e-02 0.
      4.54545468e-02 2.59698272e-01 0. 6.25000000e-02 0. -3.70370373e-02
      -3.03030312e-02 -1.63660422e-01 0. 0. 2.17391308e-02 0.
      -3.03030312e-02 0. 0. 0. 0. -2.88793683e-01 -1.96078438e-02
      4.54545468e-02 0. -6.60173148e-02 0. 0. 3.12500000e-02
      -2.17391308e-02 0. 0. 0. 0. -3.04995745e-01 -7.40740746e-02
      -4.25724648e-02 4.54545468e-02 0. 0. -3.03030312e-02 0. 0. 0. 0.
      0. 0. 0. 0. 0. 4.54545468e-02 0. 0. -1.17380954e-01
      -1.00969747e-02 0. 0. 0. 2.89772749e-01 0. 0. -1.99999996e-02 0.
      0. -3.03030312e-02 4.54545468e-02 0. 4.34782617e-02 0.
      -6.60173148e-02 0. -3.70370373e-02 -1.99999996e-02 0.
      -3.03030312e-02 -2.17391308e-02 1.25000000e-01 0. 0. 0.
      1.32411063e-01 0. 4.54545468e-02 0. 0. 0. 0. 0. 0. 0. 0.
      -1.99999996e-02 1.37931034e-01 -1.46099746e-01 0. 0. 0. 0. 0. 0.
      0. -3.57142873e-02 4.54545468e-02 4.54545468e-02 -1.40123144e-01
      0. 0. 0. 0. 8.11688304e-02 0. 0. -3.26249570e-01 0. 0. 0. 0. 0.
      9.09090936e-02 0. 0. 6.25000000e-02 1.11187309e-01 0. 0. 0. 0.
      3.12500000e-02 0. 0. -2.08333340e-02 0. 0. 6.25000000e-02 0. 0. 0.
      0. 0. 0. 0. -3.70370373e-02 1.46926537e-01 9.09090936e-02 0. 0. 0.
      0. 0. 0. -3.03030312e-02 0. 0. -1.99999996e-02 0. -2.17391308e-02
      0. 0. 0. 0. 0. 0. 9.69827622e-02 0. 0. 0. 0. 0. 0. 0. 0.
      1.07142866e-01 0. 4.54545468e-02 0. 0. 0. 0. 0. -4.60606366e-01 0.
      -1.96078438e-02 0. 0. 0. 0. -2.49577999e-01 4.54545468e-02
      3.57142873e-02 1.36250004e-01 0. 0. 0. 0. 4.54545468e-02
      1.01447046e-01 0. 1.48642957e-01 0. 0. 0. 4.54545468e-02
      1.88311696e-01 0. 1.31752305e-02 0. 0. 0. 0. 0. 0. 0. 0.
      2.94237018e-01 0. -4.25724648e-02 -2.64550000e-03 0.
      4.54545468e-02 0. -1.99999996e-02 0. -2.17391308e-02
      9.09090936e-02 0. 3.12500000e-02 0. 0. 0. 0. 0. -3.57142873e-02 0.
      0. 6.89655170e-02 0. 0. -5.87761700e-02 0. 0. 0. 1.30434781e-01 0.
      0. -7.40740746e-02 0. 0. 0. 6.61231875e-02 0. 0. 0.
      -7.28754997e-02 0. 0. 0. 0. 9.24188346e-02 -2.09578007e-01 0. 0.
      -1.46491900e-01 0. 0. 0. 0. 0. 0. -8.17881525e-02 0. 0.
      -2.08333340e-02 0. 0. 4.34782617e-02 0. 4.54545468e-02 0.
      -3.57142873e-02 3.57142873e-02 -2.17391308e-02 0. 0. 0.
      -5.03030308e-02 -6.02040216e-02 0. -2.17391308e-02 0. 0. 0.
      9.09090936e-02 0. 9.09090936e-02 -1.96078438e-02 0. 0.
      1.39204547e-01 -4.17391285e-02 0. 0. 0. 0. 2.37154160e-02 0. 0. 0.
      0. 0. 0. 0. 0. 0. 0. 0. 0. 0. -1.01788148e-01 0. 0. 0.
      1.81818187e-01 -1.96078438e-02 0. 3.57142873e-02 -1.99999996e-02
      0. 0. -3.11602384e-01 1.00215517e-01 0. 0. 8.89328122e-02
      2.46212129e-02 0. 0. 0. 0. 0. -1.06050730e-01 0. 4.54545468e-02 0.
      0. 0. -5.96078411e-02 0. 8.11688304e-02 -2.17391308e-02 0.
      7.91925490e-02 0. -4.34782617e-02 0. 0. 0. 0. 0. 0.
      -1.09788358e-01 -3.03030312e-02 -1.38768643e-01 -6.60173148e-02
      1.03448272e-01 0. 2.88208202e-03</_>
    <_>
      0. -4.52284031e-02 0. 0. -1.61617175e-01 1.46926537e-01 0. 0. 0.
      -1.49253728e-02 0. 0. 0. 0. 3.57142873e-02 0. 0. 4.34782617e-02 0.
      0. 1.65948272e-01 -1.49253728e-02 0. -6.01537749e-02 0. 0. 0. 0.
      0. -1.75438598e-02 0. -3.82192314e-01 2.59034455e-01 0.
      4.54545468e-02 0. 0. 6.89655170e-02 0. 0. 0. -1.47061870e-02 0. 0.
      0. 0. 0. 1.81818187e-01 -3.00768875e-02 0. 0. 0. 4.54545468e-02 0.
      0. 0. 0. -1.15434170e-01 -1.53846154e-02 0. 0. 0. -5.14811613e-02
      4.34782617e-02 0. 0. 4.54545468e-02 0. -3.10245324e-02 0.
      -5.31114936e-01 -1.49253728e-02 -1.63934417e-02 -1.75438598e-02
      4.54545468e-02 0. 0. 0. 0. 6.25000000e-02 -3.14478517e-01
      -3.13188136e-02 2.13932812e-01 0. 0. 0. 6.57327622e-02 0.
      3.57142873e-02 0. 0. 0. -1.75438598e-02 0. 0. 0. 3.57142873e-02
      -6.62037581e-02 0. 0. 3.57142873e-02 4.34782617e-02 0.
      2.50000000e-01 0. 0. 0. 0. 4.34782617e-02 0. -1.51515156e-02 0. 0.
      -1.49253728e-02 1.98412705e-02 0. 0. 3.57142873e-02
      -2.73623973e-01 0. 0. 0. 0. 0. 0. 0. 0. 4.54545468e-02 0. 0. 0. 0.
      4.34782617e-02 0. 0. 6.25000000e-02 3.57142873e-02 0.
      4.54545468e-02 2.59698272e-01 0. 6.25000000e-02 -6.83521628e-01 0.
      0. 0. 0. 0. 4.34782617e-02 0. 0. 0. 0. 0. 0. 0. 0. 4.54545468e-02
      0. 0. 0. -1.49253728e-02 3.12500000e-02 0. 0. -3.15449573e-02 0.
      0. 6.25000000e-02 0. 0. 4.54545468e-02 0. 0. -1.49253728e-02 0. 0.
      0. 0. 0. 0. 0. 0. 0. 4.54545468e-02 0. 0. -1.49253728e-02
      -7.63218850e-06 -2.21464396e-01 0. -1.63934417e-02 2.89772749e-01
      0. 0. 0. 0. 0. 0. 3.00699323e-02 0. 4.34782617e-02 0. 0. 0. 0.
      -1.10888369e-01 0. 0. 0. 1.25000000e-01 0. 0. 0. 1.32411063e-01 0.
      4.54545468e-02 0. 0. 0. 0. 0. 0. 0. 0. 0. 1.37931034e-01 0. 0. 0.
      0. 0. -1.75991267e-01 0. 0. 0. 4.54545468e-02 4.54545468e-02
      -2.98507456e-02 0. -3.29284742e-02 0. 0. 8.11688304e-02 0. 0. 0.
      0. 0. 0. 0. 0. 9.09090936e-02 0. 0. 6.25000000e-02 1.11187309e-01
      0. 0. -1.63934417e-02 0. 3.12500000e-02 -1.58730168e-02 0. 0. 0.
      0. 6.25000000e-02 -2.94602156e-01 0. 0. 0. 0. 0. 0. 0.
      1.46926537e-01 -1.44545302e-01 0. 0. 0. 0. 0. 0. 0. 0. 0. 0. 0.
      -3.39373015e-02 0. 0. 0. 0. 0. 0. 9.69827622e-02 0. 0.
      -3.24692316e-02 0. 0. 0. 0. 0. 1.07142866e-01 0. 4.54545468e-02
      -1.63934417e-02 0. -4.35487002e-01 0. -4.06101286e-01
      3.12500000e-02 0. -1.13996424e-01 0. 0. 0. 0. -1.16803180e-02
      4.54545468e-02 3.57142873e-02 1.39856562e-01 0. 0. 0. 0.
      4.54545468e-02 1.01447046e-01 0. 9.17328224e-02 0. 0. 0.
      -3.91977847e-01 1.88311696e-01 0. 4.34782617e-02 0. 0. 0. 0. 0. 0.
      0. 0. 2.94237018e-01 0. 0. 7.14285746e-02 0. 4.54545468e-02 0.
      -1.75438598e-02 0. 0. 9.09090936e-02 0. 3.12500000e-02 0. 0. 0. 0.
      0. 0. 0. -1.63934417e-02 6.89655170e-02 0. -3.07692308e-02 0. 0.
      0. 0. 1.14041343e-01 0. 0. 0. 0. -1.04929894e-01 0. 1.22670814e-01
      0. 0. 0. 0. 0. 0. 0. 0. 1.12418830e-01 0. 0. 0. -1.53846154e-02
      -3.03099882e-02 0. 0. 0. 0. 0. -1.63934417e-02 0. 0. 0. 0. 0.
      4.34782617e-02 0. 4.54545468e-02 0. 0. 3.57142873e-02
      -1.57358706e-01 0. 0. 0. 0. 4.54545468e-02 0. -3.13661307e-01 0.
      0. 0. 9.09090936e-02 0. 9.09090936e-02 0. 0. -6.13957047e-02
      1.39204547e-01 0. 0. -1.75438598e-02 0. 0. -3.75559360e-01 0. 0.
      0. 0. 0. 0. 0. 0. -6.75569549e-02 0. 0. 0. 0. 0. 0. 0. 0.
      1.81818187e-01 0. 0. 3.57142873e-02 0. -1.63934417e-02 0. 0.
      1.00215517e-01 -1.75438598e-02 0. 8.89328122e-02 4.54545468e-02 0.
      0. -9.56506580e-02 0. 0. 0. 0. 4.54545468e-02 0. 0. 0.
      -1.53846154e-02 -1.49253728e-02 6.47753924e-02 -7.86230788e-02
      -3.00768875e-02 7.91925490e-02 0. 0. -1.63934417e-02 0.
      -3.24692316e-02 0. 0. 0. -6.68337494e-02 -2.99625248e-01 0.
      -4.66422476e-02 1.03448272e-01 0. 4.54545468e-02</_>
    <_>
      0. -5.95238134e-02 0. -8.01080316e-02 -9.82664973e-02
      1.46926537e-01 0. 0. 0. 0. -1.38888890e-02 0. 0. 0.
      -4.09780070e-02 0. 0. 4.34782617e-02 0. 0. 1.65948272e-01 0. 0. 0.
      0. 0. -3.17460336e-02 0. 0. 0. 0. 0. 2.59034455e-01 0.
      1.21212117e-02 -1.66666675e-02 0. 6.89655170e-02 0.
      -1.66666675e-02 0. 4.54545468e-02 -5.00000045e-02 0.
      -1.66666675e-02 0. -1.66666675e-02 1.81818187e-01 0. 0. 0.
      -5.22366539e-02 4.54545468e-02 -1.81818176e-02 0. -1.66666675e-02
      0. 0. 0. 0. 0. 0. 0. 4.34782617e-02 -2.29948491e-01 0.
      4.54545468e-02 -4.74767327e-01 -3.17460336e-02 0. -3.40548344e-02
      -5.68777733e-02 -2.00814545e-01 0. 4.54545468e-02 0. 0. 0.
      -3.05555575e-02 6.25000000e-02 0. -3.48484851e-02 2.13932812e-01
      -9.18802544e-02 0. 0. 6.57327622e-02 0. 3.96825466e-03 0. 0. 0.
      -1.66666675e-02 0. 0. 0. 3.57142873e-02 -1.48194358e-01 0. 0.
      3.57142873e-02 4.34782617e-02 0. 2.50000000e-01 0. 0.
      -3.10573727e-02 0. 4.34782617e-02 0. 0. 0. 0. 0. 3.57142873e-02
      -3.13706584e-02 -4.66207042e-02 3.57142873e-02 0. 0. 0. 0.
      -2.84388866e-02 0. 0. 0. 0. 4.54545468e-02 0. 0. 0. 0.
      -3.63671854e-02 0. 0. 6.25000000e-02 -1.22076027e-01
      -1.49253728e-02 4.54545468e-02 2.59698272e-01 0. 6.25000000e-02 0.
      0. -1.66666675e-02 0. 0. 0. 2.56211180e-02 -1.61633581e-01 0. 0.
      0. 0. -1.49253728e-02 0. 0. 4.54545468e-02 0. 0. -1.38888890e-02
      0. 3.12500000e-02 0. 0. 0. 0. -1.34294078e-01 6.25000000e-02 0. 0.
      -3.83591577e-02 0. 0. -1.66666675e-02 -2.27350906e-01 0. 0. 0. 0.
      0. 0. 0. 0. 4.54545468e-02 0. 0. 0. 3.12500000e-02 0. 0.
      -1.49253728e-02 2.89772749e-01 0. -1.78571437e-02 0.
      -4.40690704e-02 -1.66666675e-02 0. 4.54545468e-02 0.
      4.34782617e-02 0. 0. -1.20783351e-01 0. 0. 0. 0. 0. 1.25000000e-01
      0. 0. -3.17460336e-02 1.32411063e-01 -1.81818176e-02
      4.54545468e-02 -6.66666701e-02 0. 0. 0. 0. 0. 0. 0.
      -4.84126993e-02 1.37931034e-01 0. 0. 0. -1.78571437e-02
      -1.43588141e-01 0. 0. -1.58730168e-02 0. 4.54545468e-02
      4.54545468e-02 0. -5.23809567e-02 0. 0. 0. 8.11688304e-02 0. 0. 0.
      -3.45238112e-02 -1.58730168e-02 0. 0. 0. 9.09090936e-02 0. 0.
      6.25000000e-02 1.11187309e-01 0. 0. -1.75438598e-02 0.
      3.12500000e-02 0. 0. -1.38888890e-02 0. 0. 6.25000000e-02 0. 0. 0.
      0. 0. 0. 0. 0. 1.46926537e-01 9.09090936e-02 0. 0. 0.
      -2.84388866e-02 0. 0. 0. 0. 0. 0. -3.14327478e-02 0. 0. 0.
      -7.18031451e-02 -2.42794484e-01 -1.81818176e-02 0. 9.69827622e-02
      0. 0. 0. -2.93865316e-02 0. 0. 0. 0. 9.04762000e-02 0.
      4.54545468e-02 0. -5.38499355e-01 -1.66666675e-02 0. 0.
      3.12500000e-02 0. 0. 0. 0. -1.59989923e-01 0. 3.57142873e-02
      4.54545468e-02 3.57142873e-02 1.56250000e-01 0. -1.66666675e-02
      -6.65438175e-02 0. 4.54545468e-02 1.01447046e-01 0. 2.32954547e-01
      0. 0. 0. 4.54545468e-02 1.88311696e-01 0. 4.34782617e-02
      -1.66666675e-02 0. 0. 0. 0. 0. 0. 0. 2.94237018e-01 0. 0.
      7.14285746e-02 -1.66666675e-02 4.54545468e-02 0. 0.
      -1.66666675e-02 0. 9.09090936e-02 0. 3.12500000e-02 0. 0. 0. 0. 0.
      0. -6.09081201e-02 0. 6.89655170e-02 0. 0. -7.78880715e-02 0.
      -1.66666675e-02 -6.58730194e-02 1.30434781e-01 0. 0. 0. 0.
      -1.15748271e-01 0. 1.22670814e-01 0. 0. -1.66666675e-02 0.
      -2.94358939e-01 0. -2.83132792e-01 0. 9.57521647e-02 0. 0. 0. 0.
      0. 0. 0. 0. 0. -7.69548789e-02 0. 0. -2.88142618e-02 0. 0. 0.
      4.34782617e-02 -1.10526286e-01 4.54545468e-02 0. 0.
      -2.74644941e-02 0. 0. 0. 0. 0. 4.54545468e-02 0. 0. 0.
      -1.81818176e-02 0. 9.09090936e-02 0. 9.09090936e-02
      -1.49253728e-02 -2.36065358e-01 0. 1.39204547e-01 -4.92898934e-02
      0. 0. -3.20707075e-02 0. 4.54545468e-02 0. 0. 0. -9.85947698e-02
      0. -4.14160430e-01 0. 0. 0. 0. 0. 0. -3.01801823e-02 0. 0.
      -6.46992326e-02 -2.65609831e-01 1.81818187e-01 -5.07215038e-02 0.
      3.57142873e-02 0. -3.14327478e-02 0. 0. 1.00215517e-01 0. 0.
      8.89328122e-02 4.54545468e-02 0. 0. 0. 0. 0. 0. 0. 4.54545468e-02
      0. -1.50334179e-01 0. 0. 0. 1.79900527e-02 0. 0. 3.72401476e-02 0.
      0. 0. 0. 0. 0. -1.38888890e-02 0. -1.58730168e-02 -1.66666675e-02
      0. 0. 1.03448272e-01 -1.30325824e-01 4.54545468e-02</_>
    <_>
      -3.70370373e-02 0. 0. -4.54545468e-02 0. 1.46926537e-01
      -7.29442984e-02 0. 0. 0. -7.61494264e-02 0. -9.54545438e-02 0.
      3.57142873e-02 0. 0. 4.34782617e-02 0. 0. 1.65948272e-01 0. 0. 0.
      0. 0. 0. 0. 0. 0. 0. 0. 2.59034455e-01 0. 4.54545468e-02 0.
      -3.44827585e-02 6.89655170e-02 -1.33333340e-01 0. -7.69230798e-02
      4.54545468e-02 0. 0. -1.80128217e-01 -1.71794876e-01
      -2.89610982e-01 1.43356651e-01 0. -1.17249422e-01 0. 0.
      4.54545468e-02 0. 0. -3.84615399e-02 0. 0. 0. 0. 0. 0. 0.
      4.34782617e-02 -7.03703761e-02 0. 4.54545468e-02 0.
      -3.33333351e-02 0. 0. -1.50307685e-01 -3.33333351e-02 0.
      4.54545468e-02 0. 0. 0. 0. 6.25000000e-02 0. 0. 1.37009725e-01
      -3.44827585e-02 -3.70370373e-02 0. 6.57327622e-02 0.
      3.57142873e-02 0. 0. 0. -4.16666679e-02 0. 0. 0. -8.12654018e-01
      -7.69230798e-02 0. -8.84615406e-02 3.57142873e-02 4.34782617e-02
      0. 2.50000000e-01 0. 0. 0. 0. 8.99550319e-03 0. 0. -1.77777782e-01
      0. 0. -5.27472533e-02 -3.44827585e-02 0. 3.57142873e-02 0.
      -7.61494264e-02 -3.44827585e-02 0. 0. 0. -7.69230798e-02 0. 0.
      4.54545468e-02 0. 0. 0. 0. -7.19063580e-02 0. -1.03448272e-01
      6.25000000e-02 -1.42857134e-02 0. 4.54545468e-02 2.59698272e-01 0.
      6.25000000e-02 0. -3.84615399e-02 0. 0. 0. 0. 4.34782617e-02
      -3.33333351e-02 0. -4.16666679e-02 0. 0. -4.16666679e-02 0. 0.
      4.54545468e-02 0. 0. 0. 0. 3.12500000e-02 0. 0. 0. 0.
      -8.84615406e-02 6.25000000e-02 0. 0. 4.54545468e-02 0. 0. 0. 0.
      -1.24242425e-01 0. 0. 0. 0. 0. 0. 0. 4.54545468e-02 0.
      -3.84615399e-02 0. 3.12500000e-02 0. 0. -8.01282078e-02
      2.89772749e-01 0. -3.44827585e-02 0. -3.84615399e-02 0. 0.
      4.54545468e-02 0. 4.34782617e-02 0. 0. 0. 0. 0. 0. 0.
      -4.54545468e-02 -2.06789166e-01 0. 0. -7.29442984e-02
      1.32411063e-01 0. 4.54545468e-02 -3.33333351e-02 0. 0. 0. 0.
      -7.03703761e-02 0. 0. -3.84615399e-02 1.37931034e-01 0.
      -1.32491589e-01 0. 0. 0. 0. 0. 0. 0. 4.54545468e-02 4.54545468e-02
      0. -3.44827585e-02 0. 0. 0. 8.11688304e-02 0. 0. 0. 0. 0.
      -7.40740746e-02 0. 0. 9.09090936e-02 0. 0. 6.25000000e-02
      3.42642255e-02 -3.84615399e-02 0. -3.84615399e-02 0.
      -1.04166679e-02 0. 0. 0. 0. 0. 6.25000000e-02 0. 0. 0. 0. 0. 0. 0.
      0. 1.46926537e-01 9.09090936e-02 -3.84615399e-02 0. 0. 0. 0. 0. 0.
      0. 0. 0. 0. 0. 0. -4.16666679e-02 0. 0. 0. 0. 9.69827622e-02 0. 0.
      0. -3.86195302e-01 0. 0. -4.16666679e-02 0. 7.26601034e-02 0.
      4.54545468e-02 0. 0. 0. 0. 0. 3.12500000e-02 0. 0. 0. 0. 0. 0.
      3.57142873e-02 4.54545468e-02 3.57142873e-02 1.56250000e-01 0. 0.
      0. -3.84615399e-02 4.54545468e-02 1.01447046e-01 0. 2.32954547e-01
      -3.84615399e-02 0. 0. 4.54545468e-02 1.88311696e-01 0.
      4.34782617e-02 0. 0. -4.54545468e-02 0. 0. 0. 0. -3.70370373e-02
      2.94237018e-01 0. 0. 7.14285746e-02 0. 4.54545468e-02 0. 0. 0. 0.
      9.09090936e-02 0. -1.87500007e-02 0. 0. -5.00000007e-02 0. 0.
      -8.01282078e-02 0. 0. 6.89655170e-02 0. 0. -5.00000007e-02 0.
      -7.40740746e-02 0. 1.30434781e-01 0. 0. -7.03703761e-02 0. 0. 0.
      8.81880522e-02 0. 0. 0. 0. 0. 0. -3.44827585e-02 0. 7.39572942e-02
      0. 0. 0. 0. 0. 0. 0. 0. -7.69230798e-02 -1.61279470e-01 0. 0. 0.
      0. -3.44827585e-02 0. 4.34782617e-02 -4.54545468e-02
      -1.26959249e-01 0. 0. 3.57142873e-02 0. 0. -9.54545438e-02 0. 0.
      4.54545468e-02 0. 0. 0. 0. 0. 9.09090936e-02 0. 9.09090936e-02 0.
      0. 0. 1.39204547e-01 -3.84615399e-02 0. -6.89655170e-02 0. 0.
      4.54545468e-02 0. 0. 0. 0. 0. 0. 0. 0. 0. 0. 0. 0. -3.84615399e-02
      -3.70370373e-02 -3.44827585e-02 0. -2.23232329e-01 1.81818187e-01
      0. -3.33333351e-02 3.57142873e-02 0. 0. 0. 0. 1.00215517e-01 0. 0.
      8.89328122e-02 4.54545468e-02 0. 0. 0. 0. 0. 0. 0. 4.54545468e-02
      0. -4.77564126e-01 0. 0. 0. 8.11688304e-02 0. 0. 7.91925490e-02 0.
      0. 0. 0. 0. 0. 0. 0. 0. 0. 0. 0. 1.03448272e-01 0. 4.54545468e-02</_>
    <_>
      0. -1.92307699e-02 0. -5.76923117e-02 -5.76923117e-02
      1.46926537e-01 0. 0. 0. 0. 0. 0. 0. 0. -6.91609830e-03 0. 0.
      4.34782617e-02 0. 0. 1.65948272e-01 0. 0. 0. 0. 0. 0.
      -4.26303856e-02 0. 0. 0. 0. 2.59034455e-01 -2.27272734e-02
      4.54545468e-02 0. 0. 6.89655170e-02 0. 0. 0. 4.54545468e-02 0. 0.
      0. 0. 0. 1.81818187e-01 -3.45175475e-01 0. -2.32558139e-02
      -4.59200710e-01 4.54545468e-02 0. 0. 0. 0. 0. -2.77777780e-02
      -1.92307699e-02 0. 0. 0. 4.34782617e-02 0. 0. 4.54545468e-02 0. 0.
      0. 0. 0. 0. 0. 4.54545468e-02 0. 0. -2.39580780e-01 0.
      6.25000000e-02 0. -4.92716402e-01 2.13932812e-01 -2.04081628e-02
      -7.38269687e-02 0. 6.57327622e-02 0. 1.64835174e-02 0. 0. 0. 0. 0.
      0. 0. 3.57142873e-02 0. 0. 0. 3.57142873e-02 4.34782617e-02 0.
      2.50000000e-01 0. 0. 0. 0. 4.34782617e-02 0. 0. 0. 0. 0.
      1.64835174e-02 0. 0. 3.57142873e-02 -3.99999991e-02 0. 0. 0.
      -8.15969780e-02 0. 0. 0. 0. 4.54545468e-02 0. -8.75990689e-02 0.
      0. 4.34782617e-02 0. 0. 6.25000000e-02 3.57142873e-02 0.
      4.54545468e-02 2.59698272e-01 0. -3.20378654e-02 0. 0. 0. 0. 0. 0.
      4.34782617e-02 0. -1.67770192e-01 0. 0. 0. 0. 0. 0. 4.54545468e-02
      0. 0. 0. 0. 3.12500000e-02 0. 0. 0. -2.08120018e-01 0.
      6.25000000e-02 0. -2.04081628e-02 4.54545468e-02 -2.27272734e-02
      0. 0. -1.99999996e-02 0. 0. 0. 0. 0. 0. 0. 0. 4.54545468e-02
      -2.32558139e-02 0. 0. 3.12500000e-02 0. 0. 0. 2.89772749e-01 0.
      -4.26303856e-02 0. 0. -4.56410274e-02 -1.83085233e-01
      4.54545468e-02 0. 4.34782617e-02 0. 0. 0. 0. 0. 0. -2.27272734e-02
      0. 1.25000000e-01 0. 0. 0. 1.32411063e-01 -1.76391244e-01
      4.54545468e-02 0. 0. -2.22222228e-02 0. 0. -5.34188040e-02 0. 0.
      0. 1.37931034e-01 -1.92307699e-02 0. 0. 0. -4.22222242e-02 0. 0.
      0. 0. 4.54545468e-02 4.54545468e-02 0. 0. -3.89332682e-01
      -1.92307699e-02 0. 8.11688304e-02 0. -8.16381693e-01 0. 0. 0. 0.
      0. 0. 9.09090936e-02 0. 0. 6.25000000e-02 6.33240566e-02 0. 0.
      -2.04081628e-02 0. 3.12500000e-02 0. 0. 0. 0. -8.44803005e-02
      6.25000000e-02 -1.14643291e-01 0. 0. 0. 0. 0. 0. 0. 1.46926537e-01
      9.09090936e-02 0. 0. 0. 0. 0. 0. 0. 0. 0. 0. 0. 0. 0. 0. 0. 0. 0.
      0. 9.69827622e-02 0. 0. 0. 0. -1.48804367e-01 0. -4.32558134e-02
      0. 1.07142866e-01 -1.39002264e-01 4.54545468e-02 0. 0. 0. 0. 0.
      3.12500000e-02 0. 0. 0. -2.43629247e-01 0. 0. 3.57142873e-02
      4.54545468e-02 3.57142873e-02 1.56250000e-01 0. 0. -1.58453763e-01
      0. 4.54545468e-02 1.01447046e-01 0. 2.32954547e-01 0. 0.
      -1.99999996e-02 4.54545468e-02 1.88311696e-01 0. 4.34782617e-02 0.
      0. 0. 0. 0. 0. 0. 0. 2.94237018e-01 0. 0. 7.14285746e-02 0.
      4.54545468e-02 0. 0. 0. 0. 9.09090936e-02 0. 3.12500000e-02 0. 0.
      0. 0. -4.44444455e-02 0. 0. 0. 6.89655170e-02 0. 0. 0. 0.
      -2.56410260e-02 -4.56410274e-02 1.30434781e-01 0. 0. 0. 0.
      -2.27272734e-02 0. 1.22670814e-01 0. 0. 0. 0. 0. -4.56410274e-02
      0. 0. 1.12418830e-01 0. 0. 0. 0. 0. 0. -1.99999996e-02 0. 0. 0. 0.
      0. 0. 0. -2.27272734e-02 0. 4.34782617e-02 0. 4.54545468e-02 0. 0.
      3.57142873e-02 0. 0. -8.16326514e-02 0. 0. 4.54545468e-02 0. 0. 0.
      -5.19351661e-01 -2.32558139e-02 9.09090936e-02 0. 9.09090936e-02
      -1.92307699e-02 -2.77777780e-02 0. 1.39204547e-01 0. 0. 0.
      -1.39817819e-01 0. 4.54545468e-02 -2.04081628e-02 0. 0.
      -2.04081628e-02 -2.06799418e-01 0. 0. 0. 0. 0. 0. 0. 0. 0. 0. 0.
      0. 1.81818187e-01 0. 0. 3.57142873e-02 0. -7.50292838e-01 0. 0.
      1.00215517e-01 0. 0. 8.89328122e-02 4.54545468e-02 0. 0.
      -1.92307699e-02 -4.26303856e-02 0. 0. 0. 4.54545468e-02 0. 0. 0.
      0. 0. 8.11688304e-02 0. 0. 7.91925490e-02 0. 0. -2.77777970e-01
      -2.32558139e-02 0. 0. 0. 0. 0. 0. 0. 0. 1.03448272e-01 0.
      4.54545468e-02</_>
    <_>
      -1.39423072e-01 0. 0. 0. 0. 1.46926537e-01 0. -3.44827585e-02 0.
      0. 0. 0. -3.44827585e-02 0. 3.57142873e-02 0. -1.25391856e-01
      4.34782617e-02 0. 0. 1.65948272e-01 0. 0. 0. 0. 0. 0. 0. 0. 0. 0.
      0. 2.59034455e-01 0. 4.54545468e-02 -3.44827585e-02 0.
      6.89655170e-02 0. 0. 0. 4.54545468e-02 0. 0. 0. 0. 0.
      8.65800902e-02 0. 0. 0. 0. 4.54545468e-02 0. 0. 0. -4.34782617e-02
      0. 0. 0. 0. 0. 0. 4.34782617e-02 0. 0. 4.54545468e-02 0. 0. 0. 0.
      -1.39423072e-01 0. 0. 4.54545468e-02 0. 0. 0. 0. 6.25000000e-02 0.
      0. 1.66313767e-01 -1.25000000e-01 -4.76190485e-02 0.
      6.57327622e-02 0. 3.57142873e-02 0. 0. 0. -3.44827585e-02 0. 0. 0.
      3.57142873e-02 -4.54545468e-02 0. 0. 3.57142873e-02 4.34782617e-02
      0. 2.50000000e-01 0. 0. 0. 0. 4.34782617e-02 0. 0. 0. 0. 0.
      3.57142873e-02 0. 0. 3.57142873e-02 0. -9.30735916e-02
      -6.25000000e-02 0. 0. 0. -4.54545468e-02 0. 0. 4.54545468e-02 0.
      0. 0. 0. 4.34782617e-02 0. -1.68478265e-01 6.25000000e-02
      3.57142873e-02 0. 4.54545468e-02 2.59698272e-01 0. 6.25000000e-02
      0. -1.25000000e-01 0. 0. 0. 0. 4.34782617e-02 0. 0.
      -1.22377627e-01 0. 0. -1.29166663e-01 0. 0. 4.54545468e-02 0.
      -4.34782617e-02 0. 0. 3.12500000e-02 0. 0. 0. 0. 0. 6.25000000e-02
      0. 0. 4.54545468e-02 0. 0. 0. -6.25000000e-02 0. -4.76190485e-02
      0. 0. 0. 0. 0. 0. 4.54545468e-02 0. 0. 0. 3.12500000e-02 0. 0. 0.
      2.46294469e-01 0. 0. 0. 0. -7.69230798e-02 0. 4.54545468e-02 0.
      4.34782617e-02 0. 0. 0. 0. 0. 0. 0. -3.96280438e-01 1.25000000e-01
      0. 0. -4.76190485e-02 1.32411063e-01 -2.50000000e-01
      4.54545468e-02 0. -1.24542132e-01 0. 0. 0. 0. 0. 0.
      -9.09090936e-02 1.37931034e-01 0. 0. 0. 0. 0. 0. 0.
      -6.66666701e-02 0. 4.54545468e-02 4.54545468e-02 0. 0. 0. 0. 0.
      8.11688304e-02 0. 0. 0. 0. -6.25000000e-02 -4.34782617e-02 0. 0.
      1.09717883e-02 0. 0. 6.25000000e-02 1.11187309e-01 0. 0. 0. 0.
      3.12500000e-02 0. 0. -4.76190485e-02 0. -7.99373090e-02
      1.90217383e-02 0. 0. 0. 0. 0. 0. -6.66666701e-02 0. 1.46926537e-01
      9.09090936e-02 0. 0. 0. 0. 0. 0. 0. 0. 0. 0. 0. 0. 0. 0.
      -3.44827585e-02 -2.05194816e-01 0. 0. 9.69827622e-02 0. 0. 0.
      -4.54545468e-02 0. 0. 0. 0. -3.00206617e-03 0. 4.54545468e-02 0.
      0. 0. 0. 0. 3.12500000e-02 0. 0. 0. -4.34782617e-02 0. 0.
      3.57142873e-02 4.54545468e-02 3.57142873e-02 1.56250000e-01 0. 0.
      -1.25000000e-01 0. 4.54545468e-02 1.01447046e-01 0. 2.32954547e-01
      0. 0. 0. 4.54545468e-02 1.88311696e-01 0. 4.34782617e-02 0. 0. 0.
      0. 0. 0. 0. 0. 2.94237018e-01 0. 0. 7.14285746e-02 -1.72644928e-01
      4.54545468e-02 -2.63768137e-01 0. -4.56158072e-01 0.
      2.84090936e-02 0. -1.91561669e-01 0. 0. 0. 0. -4.34782617e-02
      -9.10973102e-02 0. 0. -4.11794148e-02 0. 0. 0. 0. -2.82789856e-01
      0. 1.30434781e-01 0. 0. 0. -3.44827585e-02 -6.89655170e-02
      -1.39423072e-01 1.22670814e-01 0. 0. 0. 0. -4.34782617e-02 0. 0.
      0. 1.12418830e-01 0. 0. 0. 0. -4.76190485e-02 0. -1.86335415e-01
      0. 0. 0. 0. 0. 0. 0. 0. 0. 4.34782617e-02 0. -1.08168647e-01 0. 0.
      3.57142873e-02 0. 0. -1.73905835e-01 -4.76190485e-02 0.
      4.54545468e-02 0. 0. -3.44827585e-02 0. 0. 9.09090936e-02 0.
      9.09090936e-02 0. -6.25000000e-02 0. -7.39942864e-03 0. 0.
      -6.66666701e-02 0. 0. 4.54545468e-02 0. 0. -1.25391856e-01 0. 0.
      -4.76190485e-02 0. 0. 0. 0. 0. 0. -1.25000000e-01 0.
      -4.76190485e-02 0. 0. 1.81818187e-01 0. 0. 3.57142873e-02
      -1.57738090e-01 0. 0. 0. 1.00215517e-01 0. 0. 5.44500500e-02
      -2.16450170e-03 0. -1.14420064e-01 0. 0. 0. -3.44827585e-02 0.
      4.54545468e-02 0. 0. -1.53623194e-01 0. 0. 8.11688304e-02 0. 0.
      7.91925490e-02 0. 0. 0. 0. 0. 0. 0. -6.89655170e-02
      -2.01923072e-01 0. 0. 0. 1.03448272e-01 0. 4.54545468e-02</_>
    <_>
      0. 0. -1.14420064e-01 0. 0. -4.34165686e-01 -2.27272734e-02
      -3.44827585e-02 -2.27272734e-02 0. 0. -4.54545468e-02 0. 0.
      3.57142873e-02 0. 0. -1.00062415e-01 0. -2.27272734e-02
      1.65948272e-01 0. 0. 0. 0. 0. 0. 0. 0. -2.27272734e-02 0. 0.
      2.13579908e-01 0. 2.27272734e-02 0. 0. 6.89655170e-02 0.
      -2.27272734e-02 0. 4.54545468e-02 0. 0. 0. 0. 0. 1.59090906e-01 0.
      0. 0. 0. 4.54545468e-02 0. 0. -1.22828625e-01 0. 0. 0. 0.
      -2.27272734e-02 0. 0. 4.34782617e-02 0. 0. 4.54545468e-02 0. 0. 0.
      0. 0. 0. 0. 2.27272734e-02 0. 0. 0. -9.09090936e-02 6.25000000e-02
      0. 0. 2.13932812e-01 0. 0. 0. 6.57327622e-02 0. 3.57142873e-02 0.
      -4.54545468e-02 0. 0. 0. 0. 0. 3.57142873e-02 0. 0. 0.
      3.57142873e-02 4.34782617e-02 0. 2.50000000e-01 0. 0. 0.
      -1.74228668e-01 8.99550319e-03 0. 0. 0. 0. 0. -3.96445654e-02
      -2.27272734e-02 0. 3.57142873e-02 0. -9.09090936e-02 0. 0. 0. 0.
      0. 0. 0. 4.54545468e-02 -2.27272734e-02 0. 0. 0. 4.34782617e-02 0.
      0. -9.98376682e-02 3.57142873e-02 -2.27272734e-02 4.54545468e-02
      2.59698272e-01 0. 6.25000000e-02 0. 0. 0. -3.44827585e-02 0.
      -2.27272734e-02 -2.79503129e-02 0. -1.96172252e-01 0. 0. 0. 0. 0.
      0. 4.54545468e-02 0. 0. 0. -4.54545468e-02 3.12500000e-02
      -2.35133290e-01 -3.44827585e-02 0. 0. -8.83458704e-02
      6.25000000e-02 -6.81818202e-02 0. 4.54545468e-02 0. 0.
      -2.26724729e-01 0. 0. 0. 0. 0. 0. 0. 0. -2.27272734e-02
      4.54545468e-02 0. 0. 0. 3.12500000e-02 0. 0. -2.27272734e-02
      2.89772749e-01 0. -3.44827585e-02 0. 0. 0. -2.27272734e-02
      -2.35109702e-02 0. -7.09418058e-02 0. 0. 0. 0. 0. 0.
      -1.43540680e-01 0. 1.25000000e-01 0. 0. 0. 1.32411063e-01 0.
      4.54545468e-02 0. 0. 0. -9.16927904e-02 0. 0. 0. 0.
      -9.80861261e-02 1.37931034e-01 -9.09090936e-02 0. 0. 0. 0. 0. 0.
      0. 0. 4.54545468e-02 4.54545468e-02 0. -3.44827585e-02
      -9.80861261e-02 0. 0. -7.49110132e-02 0. 0. 0. 0. 0. 0. 0. 0.
      9.09090936e-02 0. 0. 6.25000000e-02 7.54730180e-02 -2.27272734e-02
      -7.99373090e-02 0. 0. 3.12500000e-02 0. -5.26315793e-02 0.
      -3.44827585e-02 0. 6.25000000e-02 0. 0. 0. 0. 0. 0. 0. 0.
      -2.65184455e-02 9.09090936e-02 0. 0. -4.54545468e-02 0. 0. 0. 0.
      0. 0. -3.44827585e-02 0. 0. 0. 0. 0. 0. -2.27272734e-02
      -8.83458704e-02 -6.03286251e-02 0. 0. 0. 0. 0. 0. 0.
      -4.00169700e-01 1.07142866e-01 0. 4.54545468e-02 0. 0. 0. 0. 0.
      3.12500000e-02 -2.86833853e-01 0. 0. 0. 0. 0. 3.57142873e-02
      4.54545468e-02 3.57142873e-02 1.56250000e-01 0. -5.26315793e-02 0.
      0. -1.86431989e-01 -3.11218388e-02 -3.43260199e-01 2.32954547e-01
      0. 0. 0. 4.54545468e-02 1.88311696e-01 0. -2.03410521e-01 0. 0. 0.
      0. 0. 0. 0. -3.44827585e-02 2.94237018e-01 0. 0. 7.14285746e-02 0.
      -9.80861261e-02 0. 0. 0. 0. 9.09090936e-02 -2.27272734e-02
      3.12500000e-02 -3.44827585e-02 0. 0. 0. 0. 0. 0. 0. 6.89655170e-02
      -3.99686515e-01 0. 0. 0. 0. 0. 1.30434781e-01 0. 0. 0. 0. 0. 0.
      1.22670814e-01 0. 0. 0. 0. 0. 0. 0. 0. 7.79360756e-02 0. 0. 0. 0.
      0. 0. 0. 0. 0. 0. 0. 0. 0. 0. 0. 0. 4.34782617e-02 0.
      9.74025950e-03 0. 0. 3.57142873e-02 0. 0. 0. 0. 0. 4.54545468e-02
      0. 0. 0. 0. 0. -3.31510603e-02 -1.05263159e-01 -3.31510603e-02 0.
      0. 0. 1.39204547e-01 -2.27272734e-02 0. 0. 0. 0. 4.54545468e-02 0.
      0. 0. 0. 0. 0. 0. 0. 0. 0. 0. 0. 0. 0. 0. 0. 0. 1.81818187e-01 0.
      0. 3.57142873e-02 0. 0. 0. 0. 9.30642337e-03 0. 0. 3.63012291e-02
      4.54545468e-02 0. 0. 0. 0. 0. 0. 0. 4.54545468e-02 0. 0. 0. 0. 0.
      8.11688304e-02 -2.27272734e-02 0. 7.91925490e-02 0. 0. 0. 0. 0. 0.
      0. 0. 0. 0. -1.96820423e-01 -2.27272734e-02 1.03448272e-01 0.
      9.74025950e-03</_>
    <_>
      0. 0. 0. 0. 0. 1.46926537e-01 0. 0. 0. 0. 0. 0. 0. -6.77279413e-01
      3.57142873e-02 0. -3.33333351e-02 4.34782617e-02 0. 0.
      1.65948272e-01 0. -6.89655170e-02 0. -3.44827585e-02 0. 0. 0. 0.
      0. 0. 0. 2.59034455e-01 0. 4.54545468e-02 0. 0. 6.89655170e-02 0.
      0. 0. 4.54545468e-02 0. 0. 0. 0. 0. 1.81818187e-01 0. 0. 0. 0.
      1.09717883e-02 0. 0. 0. -2.17931032e-01 0. 0. 0. 0. 0. 0.
      4.34782617e-02 0. 0. 1.21212117e-02 0. 0. 0. 0. 0. 0. 0.
      4.54545468e-02 0. -6.66666701e-02 0. -3.33333351e-02
      6.25000000e-02 0. 0. 2.13932812e-01 -6.66666701e-02
      -7.14285746e-02 0. -5.69581613e-03 0. 3.57142873e-02 0. 0. 0. 0.
      0. -1.12121217e-01 0. 3.57142873e-02 0. 0. 0. 3.57142873e-02
      4.34782617e-02 -1.05263159e-01 2.50000000e-01 0. 0.
      -1.42857149e-01 -3.33333351e-02 4.34782617e-02 -1.21597096e-01 0.
      -1.43448278e-01 0. 0. 2.38095224e-03 0. 0. 3.57142873e-02 0. 0. 0.
      0. 0. 0. 0. 0. 0. 4.54545468e-02 0. 0. 0. 0. 4.34782617e-02 0. 0.
      -2.28409111e-01 3.57142873e-02 -6.66666701e-02 4.54545468e-02
      2.59698272e-01 0. 6.25000000e-02 0. -2.14420065e-01 0. 0. 0.
      -5.26315793e-02 4.34782617e-02 0. 0. 0. 0. -7.99999982e-02 0. 0.
      0. 4.54545468e-02 0. -2.05391854e-01 0. 0. -1.64238721e-01 0. 0.
      0. 0. 0. 6.25000000e-02 0. -1.19298249e-01 -2.12121233e-02
      -1.76781610e-01 0. 0. 0. -4.54545468e-02 0. 0. 0. 0. 0. 0. 0.
      1.21212117e-02 0. 0. 0. 3.12500000e-02 0. 0. 0. 1.40807211e-01 0.
      -5.26315793e-02 0. 0. 0. 0. 4.54545468e-02 -9.09090936e-02
      4.34782617e-02 0. -1.58787876e-01 0. 0. 0. 0. 0. 0. 1.25000000e-01
      0. 0. 0. 1.32411063e-01 0. 4.54545468e-02 0. 0. 0. 0. 0. 0. 0. 0.
      0. 1.37931034e-01 0. 0. 0. 0. -3.44827585e-02 0. -2.63385564e-01
      0. 0. 4.54545468e-02 4.54545468e-02 0. 0. 0. 0. -3.44827585e-02
      8.11688304e-02 0. 0. 0. 0. 0. -1.83448270e-01 0. -6.66666701e-02
      3.82775143e-02 -2.46896535e-01 0. 2.91666649e-02 1.11187309e-01 0.
      0. 0. 0. -2.13815793e-02 0. 0. 0. 0. 0. -1.95075780e-01 0.
      -2.30909094e-01 0. 0. 0. 0. 0. 0. 1.46926537e-01 9.09090936e-02
      -7.14285746e-02 0. -3.40384990e-01 0. 0. 0. -3.33333351e-02 0. 0.
      0. -1.78787887e-01 0. 0. 0. 0. 0. 0. 0. 9.69827622e-02 0. 0. 0.
      -7.14285746e-02 0. 0. 0. 0. 1.07142866e-01 -6.89655170e-02
      4.54545468e-02 0. 0. 0. 0. 0. 3.12500000e-02 0. -1.08965516e-01 0.
      0. 0. 0. 3.57142873e-02 4.54545468e-02 3.57142873e-02
      1.56250000e-01 0. 0. 0. 0. 4.54545468e-02 1.01447046e-01 0.
      2.32954547e-01 0. 0. 0. 4.54545468e-02 1.88311696e-01 0.
      4.34782617e-02 0. 0. 0. 0. 0. 0. 0. 0. 2.94237018e-01 0. 0.
      7.14285746e-02 0. 4.54545468e-02 -2.90114939e-01 0. 0. 0.
      9.09090936e-02 0. -9.28101540e-02 0. 0. 0. 0. 0. 0. 0. 0.
      3.44827585e-02 0. 0. 0. 0. -3.44827585e-02 -1.08965516e-01
      1.30434781e-01 0. -7.14285746e-02 0. 0. 0. 0. 1.22670814e-01 0. 0.
      -3.44827585e-02 0. 0. 0. 0. 0. 1.12418830e-01 0. 0. 0. 0. 0.
      -6.78160936e-02 -3.44827585e-02 0. 0. 0. 0. 0. 0. 0.
      -9.80861261e-02 0. 4.34782617e-02 0. 4.54545468e-02 0.
      -4.54545468e-02 3.57142873e-02 0. 0. 0. 0. 0. 4.54545468e-02 0. 0.
      0. 0. 0. 9.09090936e-02 0. 9.09090936e-02 0. 0. 0. 6.77759722e-02
      0. 0. 0. 0. 0. 4.54545468e-02 0. 0. 0. 0. 0. 0. 0. 0. 0. 0. 0. 0.
      0. 0. -5.26315793e-02 0. 0. 1.81818187e-01 -1.12121217e-01 0.
      3.57142873e-02 0. 0. -7.14285746e-02 0. 1.00215517e-01 0.
      -3.99999991e-02 8.89328122e-02 1.21212117e-02 0. 0. 0. 0. 0. 0. 0.
      4.54545468e-02 0. 0. -3.44827585e-02 0. 0. 8.11688304e-02 0. 0.
      7.91925490e-02 0. 0. 0. 0. 0. -7.87878782e-02 0. 0.
      -9.80861261e-02 0. 0. 0. 1.03448272e-01 -3.44827585e-02
      4.54545468e-02</_>
    <_>
      -3.57142873e-02 0. 0. 0. 0. 1.46926537e-01 0. 0. 0.
      -3.12500000e-02 0. 0. 0. -3.03030312e-02 3.57142873e-02 0.
      -1.32783890e-01 4.34782617e-02 0. 0. 1.65948272e-01 0.
      -3.57142873e-02 0. 0. -6.66666701e-02 0. 0. 0. 0. 0. 0.
      2.32007429e-01 -1.16795376e-01 1.84275191e-02 0. 0. 6.89655170e-02
      0. 0. 0. 4.54545468e-02 0. -1.14728257e-01 0. 0. 0. 1.81818187e-01
      0. 0. 0. 0. -2.92737149e-02 0. 0. -2.70270277e-02 -3.57142873e-02
      0. -8.10810849e-02 -8.71940553e-02 -1.33749142e-01 -3.57142873e-02
      -2.00270459e-01 4.34782617e-02 0. -1.11888111e-01 4.54545468e-02
      0. -2.56410260e-02 0. 0. 0. 0. 0. 4.54545468e-02 -2.70270277e-02
      -1.63478255e-01 0. 0. 6.25000000e-02 0. 0. 2.13932812e-01
      -5.68910241e-02 0. 0. -3.59988473e-02 0. 3.57142873e-02 0. 0. 0.
      0. -6.13553151e-02 0. -1.27372637e-01 3.57142873e-02 0. 0. 0.
      3.57142873e-02 4.34782617e-02 0. 2.50000000e-01 0. 0.
      -3.57142873e-02 -3.12500000e-02 4.34782617e-02 -4.59238708e-01 0.
      0. -4.34782617e-02 0. 3.57142873e-02 0. 0. 3.57142873e-02 0. 0. 0.
      -4.34782617e-02 0. 0. 0. -1.53409094e-01 0. 4.54545468e-02 0. 0.
      -3.03030312e-02 0. 1.64512340e-02 0. -1.43138111e-01
      6.25000000e-02 3.57142873e-02 0. 4.54545468e-02 2.59698272e-01 0.
      2.25000009e-02 0. -2.56410260e-02 -6.66666701e-02 0.
      -2.70270277e-02 0. 4.34782617e-02 0. 0. 0. 0. -2.80579716e-01
      -1.72803029e-01 0. 0. -1.70454532e-02 0. -1.53782055e-01 0. 0.
      3.12500000e-02 0. -5.40540554e-02 0. -2.00000018e-01 0.
      6.25000000e-02 0. 0. 4.54545468e-02 0. -2.70270277e-02 0. 0. 0. 0.
      -1.12331085e-01 0. 0. 0. 0. 0. 1.84275191e-02 0. 0. 0.
      5.60897402e-03 0. 0. 0. 2.49772727e-01 0. 0. 0. 0. 0. 0.
      1.97628513e-03 0. -9.54368785e-02 0. -1.12597547e-01 0.
      -6.15530312e-02 0. 0. 0. -7.14285746e-02 1.25000000e-01 0. 0. 0.
      1.32411063e-01 0. 4.54545468e-02 0. -3.12500000e-02 0.
      -5.40540554e-02 0. -3.03030312e-02 0. -6.60173148e-02 0.
      1.37931034e-01 0. -3.12500000e-02 0. 0. 0. 0. 0. 0. 0.
      4.54545468e-02 4.54545468e-02 0. 0. -2.70270277e-02 0. 0.
      8.11688304e-02 -2.70270277e-02 0. 0. -7.99999982e-02 0. 0. 0. 0.
      5.51948063e-02 0. -6.13553151e-02 6.25000000e-02 1.11187309e-01 0.
      0. 0. 0. 3.12500000e-02 0. -2.56811589e-01 0. -5.40540554e-02 0.
      6.25000000e-02 0. 0. 0. 0. 0. 0. 0. 0. 1.46926537e-01
      9.09090936e-02 0. 0. 0. 0. 0. 0. 0. 0. 0. 0. 0. 0. 0. 0. 0. 0. 0.
      0. 9.69827622e-02 0. 0. 0. 0. -2.70270277e-02 -2.56410260e-02 0.
      0. 1.07142866e-01 -6.06060624e-02 4.54545468e-02 0. 0. 0. 0.
      -2.70270277e-02 3.12500000e-02 0. 0. -3.03030312e-02 0. 0. 0.
      3.57142873e-02 -1.70454532e-02 8.68725963e-03 1.16250001e-01 0. 0.
      0. 0. 4.54545468e-02 1.01447046e-01 0. 2.32954547e-01 0. 0. 0.
      4.54545468e-02 1.88311696e-01 0. 4.34782617e-02 0. -6.06060624e-02
      0. 0. 0. -3.99999991e-02 0. 0. 2.94237018e-01 0. 0. 7.14285746e-02
      0. 4.54545468e-02 -3.12500000e-02 0. 0. 0. 9.09090936e-02 0.
      3.12500000e-02 0. 0. 0. 0. -2.70270277e-02 -5.68910241e-02 0.
      -1.26956522e-01 6.89655170e-02 0. 0. 0. 0. 0. -6.15530312e-02
      9.04347822e-02 0. 0. 0. 0. 0. -5.12820520e-02 1.22670814e-01 0. 0.
      0. 0. 0. -2.70270277e-02 0. 0. 1.12418830e-01 -4.76442188e-01 0.
      0. 0. -9.70695987e-02 0. 0. 0. 0. 0. 0. -6.15530312e-02 0. 0. 0.
      0. 4.34782617e-02 0. 4.54545468e-02 0. 0. 3.57142873e-02 0. 0. 0.
      0. 0. -1.14364792e-02 0. 0. 0. 0. 0. 9.09090936e-02 0.
      9.09090936e-02 0. 0. 0. 1.39204547e-01 0. 0. 0. -6.66666701e-02 0.
      4.54545468e-02 0. 0. 0. 0. 0. 0. 0. 0. 0. -4.34782617e-02
      -3.12500000e-02 0. 0. 0. 0. 0. 0. 1.81818187e-01 0. 0.
      3.57142873e-02 0. 0. 0. 0. 1.00215517e-01 0. -7.26956546e-01
      6.19057789e-02 1.98135208e-02 0. 0. 0. 0. 0. 0. 0. 4.54545468e-02
      0. 0. 0. 0. 0. 8.11688304e-02 0. 0. 7.91925490e-02 0. 0. 0. 0. 0.
      0. 0. -4.34782617e-02 -8.69963393e-02 0. 0. 0. 1.03448272e-01 0.
      4.54545468e-02</_>
    <_>
      -1.44927539e-02 0. 0. 0. 0. 1.46926537e-01 0. 0. 0.
      -4.08132255e-01 0. -1.44927539e-02 0. -3.38983051e-02
      3.57142873e-02 -1.81538537e-01 0. 4.34782617e-02 0.
      -3.72964263e-01 1.65948272e-01 -1.31578948e-02 0. 0. 0. 0. 0. 0.
      0. -4.17818986e-02 0. 0. 2.59034455e-01 0. 4.54545468e-02 0. 0.
      6.89655170e-02 0. -3.10544036e-02 0. 3.03030312e-02 0.
      -5.68153858e-02 0. 0. 0. 1.81818187e-01 0. 0. 0. 0. 4.54545468e-02
      0. -5.76880693e-01 0. -5.68153858e-02 0. 0. 0. 0. -2.81913839e-02
      0. 4.34782617e-02 0. 0. 4.54545468e-02 0. 0. 0. 0. 0. 0.
      -1.36986300e-02 4.54545468e-02 0. 0. 0. 0. 6.25000000e-02 0. 0.
      2.13932812e-01 0. 0. 0. 5.05812429e-02 0. 3.57142873e-02 0.
      -2.31607571e-01 0. 0. -1.49253728e-02 0. 0. 3.57142873e-02 0. 0.
      0. 3.57142873e-02 4.34782617e-02 0. 2.50000000e-01 -2.63157897e-02
      0. 0. 0. 4.34782617e-02 0. 0. 0. 0. -3.10544036e-02 3.57142873e-02
      -1.69491526e-02 0. 3.57142873e-02 0. 0. 0. 0. 0. 0.
      -1.44927539e-02 0. 0. 4.54545468e-02 -1.35270163e-01
      -1.44927539e-02 0. 0. 4.34782617e-02 0. 0. 6.25000000e-02
      2.25563925e-02 0. 4.54545468e-02 2.59698272e-01 0. 6.25000000e-02
      -1.51515156e-02 0. 0. 0. 0. 0. -3.27255577e-03 0. 0. 0.
      -2.98276618e-02 0. 0. 0. 0. 1.33538786e-02 0. 0. 0.
      -2.40063101e-01 3.12500000e-02 0. 0. 0. 0. 0. 6.25000000e-02
      -2.08345786e-01 -9.34195146e-02 4.54545468e-02 0. 0.
      -4.70260419e-02 0. -5.74783087e-02 0. 0. 0. 0. 0. 0. 0.
      4.54545468e-02 0. -1.51515156e-02 -2.98276618e-02 3.12500000e-02
      0. 0. -1.31578948e-02 2.89772749e-01 0. 0. 0. 0. 0. 0.
      4.54545468e-02 -5.46737432e-01 4.34782617e-02 0. 0. 0.
      -7.41480738e-02 -1.34467378e-01 0. 0. 0. 1.25000000e-01 0. 0. 0.
      1.32411063e-01 -4.51145396e-02 4.54545468e-02 -5.96072935e-02 0.
      0. 0. 0. 0. 0. -1.61290318e-02 0. 1.37931034e-01 0.
      -4.37796786e-02 0. 0. 0. 0. 0. 0. 0. -1.39092682e-02
      4.54545468e-02 -1.49253728e-02 0. 0. 0. 0. 8.11688304e-02 0. 0. 0.
      0. 0. 0. 0. 0. 9.09090936e-02 0. -1.21571533e-01 6.25000000e-02
      1.11187309e-01 0. 0. 0. 0. 3.12500000e-02 -4.51145396e-02 0. 0. 0.
      -1.44927539e-02 6.25000000e-02 0. 0. 0. 0. 0. 0. 0. 0.
      1.46926537e-01 9.09090936e-02 0. -1.61290318e-02 0.
      -3.22580636e-02 0. 0. -8.95789787e-02 0. 0. 0. -1.44927539e-02 0.
      0. 0. 0. 0. 0. -1.04710832e-01 9.69827622e-02 0. 0. 0. 0. 0. 0. 0.
      0. 1.07142866e-01 -1.61290318e-02 4.54545468e-02 0. 0.
      -1.49253728e-02 0. 0. 1.95595436e-04 0. 0. 0. 0. 0.
      -2.63157897e-02 6.72877952e-03 4.54545468e-02 3.57142873e-02
      1.41757250e-01 0. 0. 0. -1.61290318e-02 4.54545468e-02
      1.01447046e-01 -7.60763288e-02 2.32954547e-01 0. 0. 0.
      4.54545468e-02 1.88311696e-01 0. 4.34782617e-02 0. 0. 0. 0. 0. 0.
      0. 0. 2.94237018e-01 0. 0. 7.14285746e-02 0. 4.54545468e-02 0.
      -3.30781862e-02 0. 0. 7.77511969e-02 0. 3.12500000e-02 0. 0. 0. 0.
      0. 0. 0. -1.49958894e-01 6.89655170e-02 0. 0. 0. 0. 0. 0.
      -1.31432693e-02 0. 0. 0. 0. -3.10544036e-02 -2.92869266e-02
      1.22670814e-01 -5.74783087e-02 0. 0. 0. 0. -2.92869266e-02 0. 0.
      -1.03695290e-02 0. 0. -1.42786503e-01 -1.78770453e-01 0. 0.
      -1.31578948e-02 0. 0. 0. -1.44927539e-02 0. -1.36986300e-02 0.
      -5.71595579e-02 0. 4.34782617e-02 0. 4.54545468e-02 0.
      -4.00144197e-02 3.57142873e-02 -2.98276618e-02 0. 0. 0. 0.
      4.54545468e-02 0. 0. 0. 0. 0. 9.09090936e-02 0. 9.09090936e-02 0.
      0. 0. 1.39204547e-01 0. 0. 0. 0. 0. 4.54545468e-02 0. 0. 0. 0. 0.
      0. -3.30781862e-02 0. 0. 0. 0. 0. 0. -1.44927539e-02 0. 0. 0.
      1.81818187e-01 0. 0. 3.57142873e-02 -2.89855078e-02 0.
      -5.93939722e-02 -2.98276618e-02 7.20241368e-02 0. -1.44927539e-02
      8.89328122e-02 1.56268850e-02 -5.73801994e-01 0. 0.
      -1.29259139e-01 0. 0. -1.36986300e-02 1.51515156e-02 0.
      -1.44927539e-02 0. 0. 0. 8.11688304e-02 -1.98743984e-01
      -4.06043500e-01 2.61406973e-03 -3.08527112e-01 0. 0. 0. 0. 0. 0.
      0. -1.36986300e-02 -1.31578948e-02 0. -2.63157897e-02
      1.03448272e-01 0. 4.54545468e-02</_>
    <_>
      -3.70370373e-02 0. -1.85185187e-02 0. -1.11111114e-02
      1.46926537e-01 0. -3.23889136e-01 0. 0. 0. 0. 0. 0. 2.05627717e-02
      0. -1.85185187e-02 4.34782617e-02 0. 0. 1.65948272e-01 0.
      -1.11111114e-02 0. -5.16329147e-02 0. 0. 0. 0. -1.58730168e-02 0.
      0. 2.59034455e-01 0. 1.10630114e-02 0. 0. 2.35109702e-02 0. 0. 0.
      4.54545468e-02 0. 0. -1.85185187e-02 0. 0. 1.81818187e-01 0. 0. 0.
      -1.85185187e-02 3.15656587e-02 0. -1.72413792e-02 -3.11302692e-02
      0. 0. 0. 0. -1.85185187e-02 0. 0. 4.34782617e-02 0.
      -2.77777780e-02 2.69360282e-02 0. -7.48403594e-02 0. 0.
      -1.38888890e-02 0. -1.62867174e-01 4.54545468e-02 0. 0. 0. 0.
      6.25000000e-02 0. 0. 2.13932812e-01 0. -8.98193717e-02 0.
      6.57327622e-02 -1.38888890e-02 3.57142873e-02 0. 0.
      -1.85185187e-02 -3.03030312e-02 -5.02645522e-02 0. 0.
      3.57142873e-02 0. -1.38888890e-02 0. 3.57142873e-02 4.34782617e-02
      -1.11111114e-02 2.10727975e-01 -3.57598960e-02 0. -1.38888890e-02
      -9.92519632e-02 2.83267461e-02 0. 0. 0. -3.57065320e-01
      -1.51515156e-02 3.57142873e-02 0. 0. 3.57142873e-02
      -2.66457684e-02 -1.85185187e-02 0. 0. 0. 0. 0. -1.85185187e-02 0.
      4.54545468e-02 0. -1.85185187e-02 -3.64942551e-02 0.
      -2.40752660e-03 0. 0. 6.25000000e-02 3.57142873e-02
      -8.88341591e-02 4.54545468e-02 2.59698272e-01 0. 6.25000000e-02 0.
      -1.11111114e-02 0. 0. 0. 0. 4.34782617e-02 0. 0. -1.85185187e-02
      0. -1.51515156e-02 0. 0. 0. 4.54545468e-02 0. 0. 0. 0.
      3.12500000e-02 0. 0. 0. 0. 0. 6.25000000e-02 0. 0. 4.54545468e-02
      -1.51515156e-02 -3.43915373e-02 0. -7.53831416e-02 -6.70498088e-02
      -1.51515156e-02 -1.56267107e-01 0. 0. 0. -1.55956119e-01
      -1.56731516e-01 2.28491835e-02 0. 0. 0. 1.60984844e-02 0. 0. 0.
      2.52735704e-01 0. 0. 0. -3.64942551e-02 -5.65656573e-02 0.
      4.54545468e-02 0. 4.34782617e-02 0. -6.06060624e-02
      -5.55555560e-02 0. -1.58730168e-02 0. 0. 0. 7.50000030e-02 0. 0.
      -1.85185187e-02 8.69565234e-02 0. 4.54545468e-02 0. 0. 0. 0.
      -5.03557771e-02 -7.66329169e-02 0. 0. 0. 5.52590750e-02 0. 0. 0.
      0. -7.01514333e-02 0. 0. 0. -4.35185209e-02 4.54545468e-02
      -3.53286602e-03 0. -1.65404052e-01 -1.72413792e-02 0.
      -7.99854025e-02 8.11688304e-02 0. 0. 0. -8.00127685e-02
      -2.53831409e-02 0. -6.88742921e-02 -8.59050304e-02 9.09090936e-02
      -1.01869270e-01 0. 2.87835244e-02 1.11187309e-01 -1.85185187e-02
      0. -8.68773982e-02 0. 3.12500000e-02 0. 0. 0. -1.32457584e-01 0.
      2.36111097e-02 0. 0. -1.51515156e-02 0. -2.26053633e-02 0.
      -1.95051089e-01 -1.11111114e-02 1.46926537e-01 9.09090936e-02 0.
      -7.93103427e-02 0. 0. 0. 0. -6.22605383e-02 0. 0. -1.85185187e-02
      -1.38888890e-02 0. 0. 0. 0. 0. 0. -1.58730168e-02 9.69827622e-02
      0. 0. 0. -1.61247954e-01 0. -1.34288698e-01 0. 0. 2.57480443e-02
      0. 4.54545468e-02 0. 0. 0. -1.51515156e-02 0. 2.01388896e-02 0. 0.
      0. -2.50000004e-02 0. 0. 2.42200345e-02 4.71380539e-03
      2.59989128e-03 1.72242746e-02 0. -3.24074067e-02 0. 0.
      1.88087784e-02 1.01447046e-01 0. 2.32954547e-01 0. 0. 0.
      4.54545468e-02 1.88311696e-01 0. 4.34782617e-02 0. 0. 0. 0. 0. 0.
      0. 0. 2.94237018e-01 -1.85127139e-01 0. 7.14285746e-02
      -3.44827585e-02 4.54545468e-02 -1.85185187e-02 0. -4.88215499e-02
      -1.23371646e-01 9.09090936e-02 0. 3.12500000e-02 0. 0. 0.
      -1.38888890e-02 -8.47473145e-02 -5.16329147e-02 0. -8.16456825e-02
      1.60554629e-02 0. 0. 0. 0. -2.77777780e-02 0. 9.33977440e-02 0. 0.
      0. 0. 0. 0. 1.22670814e-01 0. 0. -6.98595122e-02 0. 0.
      -3.40996161e-02 0. 0. 1.12418830e-01 0. 0. 0. 0. 0. 0.
      -1.85185187e-02 0. 0. 0. -4.79885042e-02 0. 0. 0. -1.20415986e-01
      -1.85185187e-02 4.34782617e-02 0. 8.41750950e-03 0. 0.
      3.57142873e-02 0. 0. 0. -1.51515156e-02 -1.38888890e-02
      -1.25275739e-02 0. 0. 0. 0. -3.81400213e-02 9.09090936e-02 0.
      9.09090936e-02 -1.51515156e-02 0. 0. 1.39204547e-01 0. 0. 0. 0. 0.
      4.54545468e-02 0. 0. -1.51515156e-02 0. -6.62287921e-02 0. 0. 0.
      0. -1.72413792e-02 -1.85185187e-02 0. 0. 0. -1.44225508e-01 0. 0.
      1.22441165e-01 -2.01149434e-01 0. -1.35368453e-02 -4.79885042e-02
      0. 0. 0. 1.00215517e-01 0. 0. 5.18957712e-02 3.03030312e-02
      -1.85185187e-02 0. 0. -1.51515156e-02 -7.64790773e-02 0.
      -4.49134223e-02 4.54545468e-02 -2.77777780e-02 -1.38888890e-02
      -1.11111114e-02 0. 0. 8.11688304e-02 0. 0. 2.62824949e-02 0. 0. 0.
      -3.77568789e-02 0. 0. -1.22222222e-01 0. 0. 0. 0. 0.
      1.03448272e-01 -1.85185187e-02 4.54545468e-02</_>
    <_>
      0. 0. 0. 0. 0. 1.46926537e-01 -3.22580636e-02 0. 0. 0. 0. 0. 0. 0.
      -3.10265347e-02 0. 0. 4.34782617e-02 0. 0. 1.65948272e-01 0. 0. 0.
      0. -6.67408258e-02 0. 0. 0. 0. 0. 0. 2.59034455e-01 0.
      4.54545468e-02 -9.09090936e-02 -1.49867386e-01 6.89655170e-02
      -6.44383430e-01 0. -4.06516194e-01 4.54545468e-02 0. 0. 0. 0. 0.
      1.04895107e-01 0. 0. 0. -3.44827585e-02 4.54545468e-02 0. 0.
      -1.35492861e-01 0. 0. 0. 0. 0. 0. 0. 4.34782617e-02 0. 0.
      4.54545468e-02 0. 0. 0. 0. -3.44827585e-02 0. 0. 4.54545468e-02 0.
      0. 0. 0. 6.25000000e-02 0. 0. 2.13932812e-01 0. 0. 0.
      6.57327622e-02 0. 3.57142873e-02 0. 0. 0. 0. -3.22580636e-02 0. 0.
      3.57142873e-02 -6.25000000e-02 0. 0. 3.57142873e-02
      -6.66407868e-02 0. 2.50000000e-01 0. -4.76190485e-02 0. 0.
      4.34782617e-02 0. 0. 0. 0. 0. 3.57142873e-02 0. 0. 3.57142873e-02
      0. -3.84615399e-02 -2.75793642e-01 0. 0. 0. -1.12195373e-01 0.
      -4.76190485e-02 4.54545468e-02 -5.55555560e-02 -7.98771083e-02 0.
      0. 4.34782617e-02 0. 0. 6.25000000e-02 3.57142873e-02 0.
      4.54545468e-02 2.59698272e-01 0. -3.75000015e-02 0. 0. 0. 0. 0.
      -3.68849218e-01 4.34782617e-02 0. 0. 0. 0. 0. -1.55555561e-01 0.
      0. 4.54545468e-02 0. 0. 0. -1.03174604e-01 3.12500000e-02 0. 0. 0.
      0. -3.44827585e-02 6.25000000e-02 0. 0. -9.24764872e-02
      -1.50793657e-01 0. -1.00000001e-01 0. 0. -1.16174147e-01 0. 0. 0.
      -1.79937303e-01 0. 0. -2.52650566e-02 0. 0. 0. 3.12500000e-02 0.
      0. -1.10119045e-01 2.89772749e-01 -9.00383145e-02 0. 0. 0. 0. 0.
      4.54545468e-02 0. 4.34782617e-02 0. 0. 0. 0. 0. -3.84615399e-02 0.
      0. 1.25000000e-01 0. 0. 0. 1.32411063e-01 0. 4.54545468e-02 0. 0.
      0. 0. 0. 0. 0. 0. -1.33481652e-01 1.37931034e-01 0. 0. 0.
      -2.00000003e-01 0. 0. 0. 0. 0. 4.54545468e-02 4.54545468e-02 0. 0.
      0. 0. 0. 8.11688304e-02 0. 0. 0. 0. 0. 0. 0. 0. 9.09090936e-02 0.
      0. 6.25000000e-02 1.11187309e-01 -6.45161271e-02 -3.84615399e-02
      0. 0. 3.12500000e-02 0. 0. 0. 0. 0. 6.25000000e-02 0. 0. 0. 0. 0.
      0. 0. 0. 1.46926537e-01 9.09090936e-02 0. 0. -1.03174604e-01 0.
      -3.53958309e-01 0. 0. 0. 0. 0. 0. 0. 0. 0. -1.37931034e-01 0. 0.
      0. 9.69827622e-02 0. 0. 0. 0. 0. 0. 0. 0. 1.07142866e-01 0.
      4.54545468e-02 0. 0. 0. 0. 0. 3.12500000e-02 0. 0. 0. 0. 0. 0.
      3.57142873e-02 4.54545468e-02 -3.32280159e-01 1.56250000e-01 0. 0.
      0. 0. 4.54545468e-02 1.01447046e-01 0. 2.32954547e-01 0. 0. 0.
      4.54545468e-02 1.88311696e-01 0. 4.34782617e-02 0. 0. 0.
      -1.65674597e-01 0. 0. 0. 0. 2.94237018e-01 0. 0. 7.14285746e-02 0.
      4.54545468e-02 0. 0. 0. 0. 9.09090936e-02 0. 3.12500000e-02 0. 0.
      0. 0. 0. -1.00000001e-01 0. 0. 6.89655170e-02 0. 0. 0. 0. 0. 0.
      1.30434781e-01 0. 0. 0. -3.22580636e-02 0. -4.76190485e-02
      6.71152547e-02 0. 0. 0. 0. 0. 0. 0. 0. -3.75531614e-03 0. 0. 0. 0.
      0. 0. 0. 0. 0. 0. 0. 0. 0. -3.22580636e-02 0. 0. 4.34782617e-02 0.
      4.54545468e-02 0. -1.10119045e-01 3.57142873e-02 0. 0. 0. 0. 0.
      4.54545468e-02 0. 0. 0. 0. 0. 9.09090936e-02 0. 9.09090936e-02 0.
      -1.33268163e-01 0. 1.39204547e-01 0. 0. 0. 0. 0. 4.54545468e-02 0.
      0. -2.15173036e-01 0. 0. 0. 0. 0. 0. 0. 0. 0. 0. 0.
      -6.25000000e-02 0. 0. 1.81818187e-01 0. 0. 3.57142873e-02
      -2.10142687e-01 0. 0. 0. 1.00215517e-01 0. 0. 8.89328122e-02
      4.54545468e-02 0. 0. 0. 0. -7.69230798e-02 0. 0. 4.54545468e-02 0.
      -1.75921962e-01 0. 0. 0. 8.11688304e-02 0. 0. 7.91925490e-02 0. 0.
      0. 0. -6.25000000e-02 0. 0. -5.37243426e-01 -4.76190485e-02 0. 0.
      -6.25000000e-02 1.03448272e-01 0. 4.54545468e-02</_>
    <_>
      -3.99999991e-02 -8.34782571e-02 0. 0. 0. 1.46926537e-01
      -3.99999991e-02 0. 0. 0. 0. 0. 0. -2.50289857e-01 3.57142873e-02
      -4.16666679e-02 -5.26315793e-02 4.34782617e-02 0. 0.
      1.65948272e-01 0. 0. 0. 0. 0. -8.16666633e-02 0. 0. 0. 0. 0.
      2.59034455e-01 0. 1.97628513e-03 0. -3.99999991e-02 6.89655170e-02
      0. 0. 0. 4.54545468e-02 0. 0. 0. -8.34782571e-02 -5.26315793e-02
      1.81818187e-01 0. 0. 0. 0. 4.54545468e-02 0. 0. -8.16666633e-02
      -4.54545468e-02 0. 0. 0. -4.16666679e-02 0. 0. 4.34782617e-02 0.
      -4.34782617e-02 4.54545468e-02 0. 0. 0. 0. -1.90717697e-01 0. 0.
      4.54545468e-02 0. 0. 0. 0. 6.25000000e-02 0. 0. 1.32266134e-01
      -1.21666670e-01 -4.16666679e-02 0. -2.12237649e-02 0.
      3.57142873e-02 0. 0. 0. 0. 0. 0. 0. 3.57142873e-02 0. 0. 0.
      3.57142873e-02 4.34782617e-02 -3.99999991e-02 2.50000000e-01 0. 0.
      -5.26315793e-02 -3.99999991e-02 4.34782617e-02 -3.57364595e-01 0.
      0. 0. 0. 3.57142873e-02 0. 0. 3.57142873e-02 0. 0. 0. 0. 0. 0. 0.
      -2.66544640e-01 0. 4.54545468e-02 0. -4.16666679e-02 0. 0.
      3.47826257e-03 0. -1.65000007e-01 6.25000000e-02 3.57142873e-02 0.
      4.54545468e-02 2.59698272e-01 0. 6.25000000e-02 0. -1.57894731e-01
      0. 0. 0. 0. 4.34782617e-02 0. 0. -3.99999991e-02 0.
      -4.54545468e-02 -4.16666679e-02 0. 0. -4.54545468e-02 0.
      -1.05263159e-01 -4.54545468e-02 0. 3.12500000e-02 0. 0. 0. 0. 0.
      6.25000000e-02 0. 0. 3.78787890e-03 0. 0. 0. 0. 0. 0.
      -1.21666670e-01 0. 0. 0. 0. 0. 4.54545468e-02 0. 0. 0.
      3.12500000e-02 0. -8.16666633e-02 -4.16666679e-02 2.89772749e-01
      0. -4.34782617e-02 0. 0. 0. 0. 4.54545468e-02 0. -7.98550695e-02
      0. -9.09090936e-02 0. 0. 0. 0. 0. -3.99999991e-02 8.15217346e-02
      -5.26315793e-02 0. -7.99999982e-02 1.32411063e-01 0.
      4.54545468e-02 0. 0. 0. 0. 0. -5.26315793e-02 0. -5.26315793e-02
      0. 1.37931034e-01 0. 0. 0. 0. 0. 0. 0. 0. -5.26315793e-02
      4.54545468e-02 3.78787890e-03 0. 0. 0. 0. 0. 8.11688304e-02 0. 0.
      0. -3.99999991e-02 -1.36363640e-01 -5.26315793e-02 0. 0.
      9.09090936e-02 -1.05263159e-01 0. 6.25000000e-02 1.11187309e-01 0.
      0. 0. 0. -1.04714915e-01 0. -4.54545468e-02 0. -3.99999991e-02 0.
      6.25000000e-02 0. 0. 0. 0. 0. 0. 0. 0. 1.46926537e-01
      9.09090936e-02 0. 0. -8.33333358e-02 0. 0. 0. 0. 0. 0. 0.
      -1.63333327e-01 -9.42982435e-02 0. 0. 0. -8.16666633e-02 0. 0.
      9.69827622e-02 0. 0. 0. -5.26315793e-02 0. 0. 0. 0. 2.38095298e-02
      -2.32219681e-01 4.54545468e-02 0. 0. 0. 0. 0. 3.12500000e-02 0.
      -5.26315793e-02 0. 0. -3.99999991e-02 0. 3.57142873e-02
      4.54545468e-02 3.57142873e-02 1.56250000e-01 0. 0. 0. 0.
      4.54545468e-02 1.01447046e-01 0. 2.32954547e-01 -1.21666670e-01 0.
      0. 4.54545468e-02 1.88311696e-01 0. 4.34782617e-02 0. 0.
      -4.16666679e-02 0. 0. -4.16666679e-02 0. -2.41626799e-01
      2.94237018e-01 -5.26315793e-02 0. 7.14285746e-02 0. 4.54545468e-02
      -9.26315784e-02 0. -4.34782617e-02 0. 9.09090936e-02 0.
      3.12500000e-02 0. 0. 0. 0. 0. 0. 0. 0. 6.89655170e-02 0. 0. 0. 0.
      -4.54545468e-02 -2.87081361e-01 1.30434781e-01 0. 0. 0. 0. 0.
      -4.16666679e-02 1.22670814e-01 0. 0. -4.16666679e-02 0. 0. 0. 0.
      0. 1.12418830e-01 -5.26315793e-02 0. 0. 0. -5.26315793e-02 0.
      -1.25000000e-01 0. 0. 0. 0. 0. -3.99999991e-02 0. 0.
      -4.34782617e-02 4.34782617e-02 -4.54545468e-02 3.78787890e-03 0.
      0. -4.42857109e-02 0. 0. 0. 0. 0. 4.54545468e-02 0. 0. 0. 0. 0.
      9.09090936e-02 -3.99999991e-02 9.09090936e-02 0. 0. 0.
      1.39204547e-01 0. 0. 0. -4.54545468e-02 0. 4.54545468e-02 0. 0. 0.
      0. 0. 0. 0. 0. 0. 0. -8.16666633e-02 0. 0. 0. -1.74298242e-01 0.
      0. 1.81818187e-01 0. 0. 3.57142873e-02 -3.26666653e-01 0.
      -1.48741424e-01 0. 1.00215517e-01 0. 0. 8.89328122e-02
      4.54545468e-02 0. 0. 0. 0. 0. 0. 0. 4.54545468e-02 0. 0.
      -4.16666679e-02 0. 0. 8.11688304e-02 0. 0. 7.91925490e-02
      -5.26315793e-02 0. 0. 0. 0. 0. 0. 0. 0. 0. 0. 0. 1.03448272e-01
      -8.34782571e-02 4.54545468e-02</_>
    <_>
      0. 0. 0. 0. 0. 1.46926537e-01 -3.22580636e-02 0. 0. 0. 0. 0. 0. 0.
      3.57142873e-02 0. -3.84615399e-02 4.34782617e-02 0.
      -1.20071679e-01 1.65948272e-01 0. 0. 0. -6.00358397e-02 0. 0. 0.
      0. 0. 0. 0. 2.59034455e-01 0. 4.54545468e-02 0. 0. 6.89655170e-02
      0. 0. 0. 4.54545468e-02 0. 0. 0. -6.00358397e-02 0. 1.81818187e-01
      0. 0. 0. 0. 4.54545468e-02 0. 0. 0. 0. 0. 0. 0. 0. 0. 0.
      4.34782617e-02 0. 0. 1.31964833e-02 0. 0. 0. 0. 0. 0. 0.
      4.54545468e-02 0. 0. 0. 0. 6.25000000e-02 0. 0. 1.31993011e-01 0.
      -2.77777780e-02 0. -1.62070431e-02 0. -7.96703324e-02 0.
      -4.76190485e-02 0. 0. 0. 0. 0. 3.57142873e-02 0. 0. 0.
      3.57142873e-02 4.34782617e-02 0. 2.50000000e-01 0. 0.
      -6.66666701e-02 0. 4.34782617e-02 0. 0. 0. 0. 0. 3.57142873e-02
      -1.46116436e-01 -4.13682669e-01 3.57142873e-02 0. -4.34782617e-02
      -3.22580636e-02 0. -3.84615399e-02 0. 0. 0. 0. 4.54545468e-02
      -1.85714290e-01 0. 0. 0. 4.34782617e-02 0. 0. 3.47222239e-02
      3.57142873e-02 0. 4.54545468e-02 2.59698272e-01 0. 2.40384601e-02
      0. -5.55918694e-01 0. 0. 0. 0. 4.34782617e-02 -3.84615399e-02 0.
      0. 0. 0. 0. 0. 0. 4.54545468e-02 0. 0. -7.69230798e-02 0.
      -9.32921320e-02 0. 0. 0. 0. 0. 6.25000000e-02 0. 0. 4.54545468e-02
      0. 0. 0. 0. -5.55555560e-02 0. 0. 0. 0. 0. 0. 0. 4.54545468e-02 0.
      0. 0. 3.12500000e-02 0. 0. -3.22580636e-02 2.61994958e-01 0. 0. 0.
      -1.13858365e-01 0. 0. 4.54545468e-02 0. 4.34782617e-02 0. 0. 0. 0.
      0. 0. 0. -3.84615399e-02 1.25000000e-01 0. -2.77777780e-02
      -8.69565234e-02 1.32411063e-01 -5.03622413e-01 4.54545468e-02
      -8.19398016e-02 0. 0. 0. 0. 0. 0. 0. 0. 1.37931034e-01 0. 0. 0. 0.
      -3.84615399e-02 0. 0. 0. -3.22580636e-02 4.54545468e-02
      4.54545468e-02 0. 0. 0. 0. 0. 8.11688304e-02 0. 0. 0. 0. 0.
      -3.22580636e-02 0. 0. 9.09090936e-02 0. 0. 6.25000000e-02
      1.11187309e-01 0. 0. 0. 0. 3.12500000e-02 0. 0. 0. 0. 0.
      3.47222239e-02 -6.66666701e-02 0. 0. 0. 0. 0. 0. 0. 1.46926537e-01
      9.09090936e-02 0. 0. -2.53002077e-01 -2.77777780e-02 0. 0. 0. 0.
      0. -4.34782617e-02 0. 0. 0. 0. -4.34782617e-02 -4.34782617e-02 0.
      0. 9.69827622e-02 0. 0. 0. 0. 0. 0. 0. 0. 4.26267385e-02 0.
      4.54545468e-02 0. -7.14285746e-02 0. 0. 0. -4.01785746e-02 0. 0.
      0. -8.78136158e-02 -2.38827854e-01 0. 3.57142873e-02
      4.54545468e-02 3.57142873e-02 1.56250000e-01 0. -4.34782617e-02 0.
      0. 4.54545468e-02 1.01447046e-01 0. 2.32954547e-01 0. 0. 0.
      4.54545468e-02 1.88311696e-01 0. 4.34782617e-02 0. 0. 0. 0. 0. 0.
      0. 0. 2.94237018e-01 -6.66666701e-02 0. 7.14285746e-02
      -6.00358397e-02 4.54545468e-02 -6.72470689e-01 0. 0. 0.
      9.09090936e-02 0. -3.54166701e-02 0. 0. 0. 0. 0. 0.
      -4.34782617e-02 0. 6.89655170e-02 0. 0. 0. -8.60805884e-02
      -1.09717578e-01 0. 1.30434781e-01 0. 0. -7.14285746e-02 0. 0.
      -4.76190485e-02 1.22670814e-01 0. 0. 0. 0. 0. 0. 0. 0.
      1.12418830e-01 0. 0. 0. 0. 0. 0. 0. 0. 0. 0. 0. 0. 0. 0. 0. 0.
      4.34782617e-02 0. 4.54545468e-02 -2.08214968e-01 0. 3.57142873e-02
      0. 0. -4.33699667e-01 0. 0. 4.54545468e-02 0. 0. 0. 0. 0.
      9.09090936e-02 0. 9.09090936e-02 0. 0. -3.84615399e-02
      -2.19065715e-02 0. 0. -3.84615399e-02 0. 0. 4.54545468e-02 0. 0.
      0. -3.84615399e-02 -9.44444463e-02 0. -1.38095245e-01 0. 0. 0. 0.
      0. 0. 0. 0. 0. 0. 1.81818187e-01 -3.84615399e-02 -3.84615399e-02
      3.57142873e-02 0. 0. 0. 0. 1.00215517e-01 0. 0. 8.89328122e-02
      4.54545468e-02 0. 0. 0. -3.84615399e-02 0. 0. -1.20401338e-01
      4.54545468e-02 0. 0. -4.05406654e-01 0. 0. 8.11688304e-02 0. 0.
      7.91925490e-02 0. -3.84615399e-02 0. -2.44613811e-01 0. 0. 0. 0.
      0. 0. 0. -6.00358397e-02 1.03448272e-01 0. 4.54545468e-02</_>
    <_>
      0. -3.11594214e-02 -3.03030312e-02 0. 0. 6.08959496e-02 0. 0. 0.
      0. 0. -1.44927539e-02 0. 0. 3.57142873e-02 -5.00000007e-02 0.
      4.34782617e-02 -2.67145127e-01 0. 1.65948272e-01 -1.66666675e-02
      0. 0. 0. 0. -2.63157897e-02 -1.57971025e-01 -1.66666675e-02 0. 0.
      0. 2.59034455e-01 0. 4.54545468e-02 0. -1.38662159e-01
      6.89655170e-02 -2.94117648e-02 -1.66666675e-02 0. -1.97628513e-04
      0. 0. 0. 0. 0. 1.29186600e-01 0. 0. 0. -7.89473653e-02
      4.54545468e-02 -1.66666675e-02 0. 0. 0. 0. 0. 0. 0. 0.
      -3.11594214e-02 4.34782617e-02 0. -2.94117648e-02 4.54545468e-02
      0. 0. 0. 0. 0. 0. 0. 2.87878793e-02 -2.89855078e-02 0. 0.
      -2.63157897e-02 6.25000000e-02 0. 0. 2.13932812e-01 0. 0. 0.
      6.57327622e-02 -2.89855078e-02 3.57142873e-02 0. 0. 0. 0. 0.
      -1.36956528e-01 0. 3.57142873e-02 -3.33333351e-02 0. 0.
      3.57142873e-02 4.34782617e-02 0. 2.33333334e-01 0. -5.12890518e-01
      0. 0. -1.76811606e-01 0. 0. 0. 0. 0. 3.57142873e-02
      -1.66666675e-02 0. 3.57142873e-02 0. 0. 0. 0. 0. 0.
      -2.61129409e-01 0. -4.78260890e-02 4.54545468e-02 -8.91304314e-02
      -5.97147942e-02 0. -1.85566187e-01 4.34782617e-02 0. 0.
      -4.16667201e-03 6.30252250e-03 0. 4.54545468e-02 2.59698272e-01 0.
      6.25000000e-02 0. 0. 0. 0. 0. 0. 4.34782617e-02 0. -3.11594214e-02
      0. -2.54104525e-01 0. 0. -5.00000045e-02 0. 4.54545468e-02 0. 0.
      0. -3.33333351e-02 3.12500000e-02 0. 0. 0. 0. -4.69696969e-02
      4.58333343e-02 0. -1.00000001e-01 4.54545468e-02 0. 0. 0. 0. 0. 0.
      0. 0. 0. 0. 0. 0. 2.87878793e-02 0. -1.55263156e-01 0.
      3.12500000e-02 0. -2.74692744e-01 -1.57971025e-01 2.89772749e-01
      0. 0. -1.44927539e-02 0. 0. 0. 4.54545468e-02 0. 4.34782617e-02 0.
      0. 0. 0. -1.66666675e-02 0. -1.44927539e-02 0. 1.25000000e-01 0.
      0. 0. 1.15744404e-01 0. -1.97628513e-04 -9.56521779e-02 0. 0. 0.
      -4.17182654e-01 -1.66666675e-02 0. -1.41758144e-01 0.
      1.37931034e-01 -1.66666675e-02 -3.27324331e-01 0. 0.
      -5.26315793e-02 -4.56521735e-02 0. 0. 0. 4.54545468e-02
      4.54545468e-02 0. 0. -1.66666675e-02 -1.44927539e-02 0.
      6.45021647e-02 0. 0. 0. 0. 0. 0. 0. -1.66666675e-02 9.09090936e-02
      0. -8.29346105e-02 6.25000000e-02 1.11187309e-01 0. 0. 0.
      -1.98376954e-01 3.12500000e-02 -8.33333433e-02 0. 0. 0. 0.
      6.25000000e-02 0. -4.78260890e-02 0. 0. 0. 0. 0. 0. 1.46926537e-01
      9.09090936e-02 0. 0. -3.33333351e-02 -5.00000007e-02 0. 0. 0.
      -2.61187732e-01 0. 0. 0. 0. -8.91265571e-02 0. 0. 0. 0. 0.
      9.69827622e-02 -1.07971020e-01 0. 0. 0. 0. 0. 0. 0. 1.07142866e-01
      0. 3.09617929e-02 0. 0. 0. 0. 0. 3.12500000e-02 0. 0. 0. 0. 0.
      -1.16333619e-01 1.90476198e-02 -4.54545394e-03 3.57142873e-02
      1.56250000e-01 0. 0. 0. -2.24692747e-01 4.54545468e-02
      1.01447046e-01 0. 2.32954547e-01 0. -2.94117648e-02 0.
      4.54545468e-02 1.88311696e-01 0. 4.34782617e-02 0. 0.
      -3.03030312e-02 0. 0. 0. 0. 0. 2.94237018e-01 0. 0. 9.10973176e-03
      0. 4.54545468e-02 0. -1.47826090e-01 0. -1.66666675e-02
      9.09090936e-02 0. 3.12500000e-02 0. 0. 0. 0. 0. 0. 0. 0.
      6.89655170e-02 0. 0. 0. 0. 0. -5.00000007e-02 1.30434781e-01 0. 0.
      0. 0. 0. -1.66666675e-02 1.08178057e-01 0. 0. 0. 0. 0. 0. 0. 0.
      1.12418830e-01 0. 0. 0. 0. -6.44927546e-02 0. -5.26315793e-02 0.
      0. 0. 0. 0. -1.66666675e-02 0. -2.89855078e-02 0. 4.34782617e-02
      0. 4.54545468e-02 0. 0. 3.57142873e-02 0. 0. 0. 0. -1.78985521e-01
      4.54545468e-02 0. 0. 0. 0. 0. 9.09090936e-02 0. 9.09090936e-02 0.
      0. 0. 1.39204547e-01 -1.66666675e-02 -4.56521735e-02 0. 0. 0.
      4.54545468e-02 0. -2.89855078e-02 -1.66666675e-02 0.
      -5.00000007e-02 0. 0. 0. 0. -1.66666675e-02 0. 0. 0. 0. 0. 0. 0.
      1.81818187e-01 0. 0. 3.57142873e-02 0. 0. -1.12346373e-01 0.
      1.00215517e-01 0. 0. 8.89328122e-02 4.54545468e-02 0. 0.
      -1.43478274e-01 0. 0. 0. 0. 4.54545468e-02 0. 0. 0. 0.
      -1.66666675e-02 8.11688304e-02 0. 0. 2.91925482e-02 0. 0. 0.
      -8.11594203e-02 0. 0. 0. 0. 0. 0. 0. 0. 1.03448272e-01 0.
      4.54545468e-02</_>
    <_>
      0. -4.08163257e-02 0. 0. -2.22222228e-02 1.26518369e-01
      -5.12820520e-02 0. 0. 0. 0. -2.04081628e-02 0. 0. 3.57142873e-02
      -4.47984040e-02 0. 4.34782617e-02 0. 0. 1.65948272e-01
      -2.03095168e-01 0. -2.56410260e-02 0. 0. 0. -2.56410260e-02
      -8.97741392e-02 0. 0. 0. 2.59034455e-01 -6.77966103e-02
      4.54545468e-02 0. 0. 6.89655170e-02 0. -6.82714134e-02 0.
      -1.62989274e-01 0. 0. 0. -8.29629600e-02 0. 1.81818187e-01 0. 0.
      -2.22222228e-02 -2.43902430e-02 4.54545468e-02 0. 0. 0. 0. 0. 0.
      0. 0. 0. -2.43902430e-02 4.34782617e-02 0. -1.99999996e-02
      4.54545468e-02 0. -2.22222228e-02 0. -1.69491526e-02
      -6.66124672e-02 0. 0. -2.40870193e-03 0. -2.22222228e-02
      -7.08474517e-02 0. 1.37195140e-02 0. 0. 2.13932812e-01 0. 0. 0.
      6.57327622e-02 0. 3.57142873e-02 0. 0. 0. 0. 0. 0. 0.
      3.57142873e-02 0. 0. 0. 3.57142873e-02 4.34782617e-02 0.
      1.93050846e-01 0. 0. 0. 0. 2.30700988e-02 0. 0. 0. 0.
      -7.97430053e-02 1.87651347e-02 0. 0. 1.57142878e-02
      -2.04081628e-02 0. 0. 0. 0. 0. 0. 0. 0. -1.10892735e-01 0. 0. 0.
      0. 4.34782617e-02 -9.08474550e-02 0. 4.02777791e-02 3.57142873e-02
      0. -1.71758384e-02 2.59698272e-01 -2.37916648e-01 6.25000000e-02
      0. 0. 0. -1.69491526e-02 0. 0. 4.34782617e-02 0. -2.43902430e-02
      0. 0. 0. -2.04081628e-02 0. -1.16949156e-01 4.54545468e-02 0. 0.
      0. -4.08163257e-02 3.12500000e-02 0. -9.78533626e-02
      -2.04081628e-02 0. -4.44444455e-02 6.25000000e-02 -1.96143001e-01
      0. 4.54545468e-02 0. 0. -1.99999996e-02 0. 0. 0. -2.56410260e-02
      0. 0. 0. -6.66124672e-02 0. 2.69360282e-02 0. 0. -1.85185187e-02
      3.12500000e-02 0. 0. 0. 2.89772749e-01 0. 0. -7.69230798e-02 0. 0.
      -9.53929499e-02 4.54545468e-02 0. 4.34782617e-02 0. 0. 0. 0. 0.
      -1.69491526e-02 -1.07836954e-01 -2.22222228e-02 1.25000000e-01 0.
      0. 0. 1.32411063e-01 0. 2.50463840e-02 0. -2.43902430e-02 0.
      -4.43902425e-02 0. 0. 0. 0. -2.04081628e-02 1.17522873e-01
      -1.00062534e-01 0. 0. -2.56410260e-02 0. -4.43902425e-02
      -2.22222228e-02 0. 0. -1.57699417e-02 4.54545468e-02
      -2.59504825e-01 -1.69491526e-02 -1.69491526e-02 0. 0.
      8.11688304e-02 0. 0. -2.13792488e-01 0. 0. 0. 0. -3.99999991e-02
      9.09090936e-02 -4.22222242e-02 0. 6.25000000e-02 6.24068193e-02 0.
      -6.98005706e-02 -1.77615166e-01 0. 3.12500000e-02 -1.49290532e-01
      0. 0. 0. 0. 6.25000000e-02 0. 0. -4.08163257e-02 -4.08163257e-02
      0. 0. 0. 0. 1.24704309e-01 7.05009326e-02 0. 0. 0. 0. 0. 0. 0. 0.
      0. 0. -2.56410260e-02 -1.69491526e-02 0. 0. 0. 0. 0.
      -2.56410260e-02 9.69827622e-02 -1.28205135e-01 0. 0. 0.
      -4.04081643e-02 -6.44444451e-02 0. 0. 1.07142866e-01 0.
      -5.31272590e-02 0. 0. 0. 0. 0. 3.12500000e-02 -1.99999996e-02
      -5.82885481e-02 0. 0. 0. 0. -9.53968242e-02 4.54545468e-02
      3.57142873e-02 1.56250000e-01 0. 0. -2.43902430e-02 0.
      2.10643038e-02 5.53978570e-02 -1.85185187e-02 1.74027860e-01 0. 0.
      0. 2.69360282e-02 1.88311696e-01 0. 4.34782617e-02 -3.38983051e-02
      0. 0. 0. 0. 0. 0. 0. 2.94237018e-01 0. -4.66124639e-02
      1.06122494e-02 0. -1.32781863e-01 0. 0. 0. -8.92428532e-02
      9.09090936e-02 -2.95972794e-01 3.12500000e-02 0. 0. 0.
      -9.81736407e-02 -2.43902430e-02 0. 0. 0. 6.89655170e-02 0. 0.
      -5.12820520e-02 -1.85185187e-02 0. 0. 1.30434781e-01 0. 0.
      -2.56410260e-02 0. 0. 0. 1.22670814e-01 0. -2.34057546e-01 0. 0.
      0. 0. 0. 0. 1.12418830e-01 0. 0. 0. -3.89266834e-02
      -5.89266792e-02 0. 0. 0. 0. 0. -1.99999996e-02 0. 0. 0.
      -2.04081628e-02 0. 4.34782617e-02 0. 4.54545468e-02 0. 0.
      3.57142873e-02 0. 0. 0. 0. -2.22222228e-02 4.54545468e-02 0.
      -7.62839988e-02 0. 0. -2.43902430e-02 6.65188506e-02 0.
